<?xml version="1.0"?>
<opencv_storage>
<cascade>
  <stageType>BOOST</stageType>
  <featureType>LBP</featureType>
  <height>40</height>
  <width>40</width>
  <stageParams>
    <boostType>GAB</boostType>
    <minHitRate>9.9900001287460327e-01</minHitRate>
    <maxFalseAlarm>5.0000000000000000e-01</maxFalseAlarm>
    <weightTrimRate>9.4999999999999996e-01</weightTrimRate>
    <maxDepth>1</maxDepth>
    <maxWeakCount>100</maxWeakCount></stageParams>
  <featureParams>
    <maxCatCount>256</maxCatCount>
    <featSize>1</featSize></featureParams>
  <stageNum>20</stageNum>
  <stages>
    <!-- stage 0 -->
    <_>
      <maxWeakCount>8</maxWeakCount>
      <stageThreshold>-1.3399708271026611e+00</stageThreshold>
      <weakClassifiers>
        <_>
          <internalNodes>
            0 -1 83 -118294990 -716062653 119827 1364545811 -335484758
            -836828893 -2143049157 207583787</internalNodes>
          <leafValues>
            -6.4677518606185913e-01 4.5835113525390625e-01</leafValues></_>
        <_>
          <internalNodes>
            0 -1 172 -111412257 -1080520434 545267927 -1475706725
            864747903 436215808 873672927 448780539</internalNodes>
          <leafValues>
            -5.6633645296096802e-01 5.1260155439376831e-01</leafValues></_>
        <_>
          <internalNodes>
            0 -1 110 -117448457 -539496730 1811931383 1307771011
            1719513338 -329519325 1082128107 1326153731</internalNodes>
          <leafValues>
            -4.9080866575241089e-01 5.2596426010131836e-01</leafValues></_>
        <_>
          <internalNodes>
            0 -1 248 -169870606 1212874 -1071459141 1075938329
            -2003835734 -1429558642 -1954307953 144419051</internalNodes>
          <leafValues>
            -5.8016657829284668e-01 4.2188072204589844e-01</leafValues></_>
        <_>
          <internalNodes>
            0 -1 59 -237807105 4706483 -686750947 85954775 -594535772
            -2139047748 -383575742 520838075</internalNodes>
          <leafValues>
            -5.5149459838867188e-01 4.6287766098976135e-01</leafValues></_>
        <_>
          <internalNodes>
            0 -1 128 -640288802 -1185812396 1348645200 1430360979
            55225227 977797649 21220011 175358895</internalNodes>
          <leafValues>
            -5.1600366830825806e-01 4.8489853739738464e-01</leafValues></_>
        <_>
          <internalNodes>
            0 -1 209 -647629390 1607839794 74230397 1434287485 -51067440
            1282891606 1552743805 2103408503</internalNodes>
          <leafValues>
            -4.4749668240547180e-01 5.2901822328567505e-01</leafValues></_>
        <_>
          <internalNodes>
            0 -1 26 2139616194 -16572282 1392527831 -1685204575
            270815400 1497944072 755194043 386078383</internalNodes>
          <leafValues>
            -5.6449502706527710e-01 4.4383653998374939e-01</leafValues></_></weakClassifiers></_>
    <!-- stage 1 -->
    <_>
      <maxWeakCount>9</maxWeakCount>
      <stageThreshold>-1.2749640941619873e+00</stageThreshold>
      <weakClassifiers>
        <_>
          <internalNodes>
            0 -1 61 -111936581 -244064207 -614935653 1899212801
            -267650518 -938503678 -1073108437 1816586</internalNodes>
          <leafValues>
            -5.5176615715026855e-01 3.8422390818595886e-01</leafValues></_>
        <_>
          <internalNodes>
            0 -1 240 1119994830 291476942 34868733 365671265 1082590155
            1573587272 1738010286 1610564042</internalNodes>
          <leafValues>
            -5.1934921741485596e-01 3.9172479510307312e-01</leafValues></_>
        <_>
          <internalNodes>
            0 -1 4 -145497390 -176177134 -989736581 -70016298 1095175488
            -82085598 1148578327 2138518131</internalNodes>
          <leafValues>
            -5.3455722332000732e-01 3.8197270035743713e-01</leafValues></_>
        <_>
          <internalNodes>
            0 -1 208 -638189862 25695464 1099034775 104063263
            -1039425366 -1197277165 -742725381 12560634</internalNodes>
          <leafValues>
            -5.7101833820343018e-01 3.7177422642707825e-01</leafValues></_>
        <_>
          <internalNodes>
            0 -1 161 -865340800 -1035410690 -924532232 -489107266
            -652484094 -1936751966 -1067326944 -6756192</internalNodes>
          <leafValues>
            -6.3620138168334961e-01 3.0069369077682495e-01</leafValues></_>
        <_>
          <internalNodes>
            0 -1 158 -724048668 -615628734 1209122977 2002247921
            -1063794513 -1885667229 180382 456115291</internalNodes>
          <leafValues>
            -4.8983171582221985e-01 4.1057834029197693e-01</leafValues></_>
        <_>
          <internalNodes>
            0 -1 135 -60001 323535323 -1878194349 255275403 -280817495
            59253000 1704285185 -37749905</internalNodes>
          <leafValues>
            -4.4755947589874268e-01 4.4151905179023743e-01</leafValues></_>
        <_>
          <internalNodes>
            0 -1 218 -1502074364 -322510829 -787457515 -561465098
            -383018203 -1179876214 -632649516 2061158688</internalNodes>
          <leafValues>
            -6.6516405344009399e-01 3.1287467479705811e-01</leafValues></_>
        <_>
          <internalNodes>
            0 -1 88 1826529458 -15676650 152109370 -145452109 -974176069
            -1706253539 1432455321 1862740763</internalNodes>
          <leafValues>
            -5.3451663255691528e-01 3.5096058249473572e-01</leafValues></_></weakClassifiers></_>
    <!-- stage 2 -->
    <_>
      <maxWeakCount>10</maxWeakCount>
      <stageThreshold>-1.7306978702545166e+00</stageThreshold>
      <weakClassifiers>
        <_>
          <internalNodes>
            0 -1 80 -527621 -541072797 1476354815 -940113679 -1032080757
            -1470558710 545235699 -820805118</internalNodes>
          <leafValues>
            -4.0101522207260132e-01 4.7408619523048401e-01</leafValues></_>
        <_>
          <internalNodes>
            0 -1 98 -269421150 -183471307 -1052175613 1130848567
            -905444470 -863397235 29438715 1102276331</internalNodes>
          <leafValues>
            -5.5386936664581299e-01 3.2538658380508423e-01</leafValues></_>
        <_>
          <internalNodes>
            0 -1 47 -586022925 -21327659 -778587311 -2146106171
            -1161761579 -2012184448 -899572877 1565522555</internalNodes>
          <leafValues>
            -4.8318696022033691e-01 3.5813519358634949e-01</leafValues></_>
        <_>
          <internalNodes>
            0 -1 210 1528001384 822459153 76076412 903832159 -264143864
            2072715521 -997407651 1169157823</internalNodes>
          <leafValues>
            -4.9785551428794861e-01 3.6260470747947693e-01</leafValues></_>
        <_>
          <internalNodes>
            0 -1 189 -2100813988 -2141698563 1235587551 1376834972
            -668081250 -292650805 -70582600 2073750452</internalNodes>
          <leafValues>
            -5.5395555496215820e-01 2.8146198391914368e-01</leafValues></_>
        <_>
          <internalNodes>
            0 -1 154 -603981121 -1471674681 339805489 146907291
            -1314961647 -123837305 -110804687 1507327871</internalNodes>
          <leafValues>
            -5.0650429725646973e-01 3.2480251789093018e-01</leafValues></_>
        <_>
          <internalNodes>
            0 -1 19 -9442618 -1235267552 -712922711 -604302641 219925248
            -365752184 1614874946 1934823434</internalNodes>
          <leafValues>
            -6.1979377269744873e-01 3.0830749869346619e-01</leafValues></_>
        <_>
          <internalNodes>
            0 -1 237 -666918354 1213990546 1263583319 1209685949
            -1993680754 -1971093373 2017690367 133675707</internalNodes>
          <leafValues>
            -5.4277914762496948e-01 3.2443073391914368e-01</leafValues></_>
        <_>
          <internalNodes>
            0 -1 219 -1114582664 -95007727 -1810533933 488671453
            -2120181616 -72847327 285653531 134742076</internalNodes>
          <leafValues>
            -5.5824756622314453e-01 3.1933486461639404e-01</leafValues></_>
        <_>
          <internalNodes>
            0 -1 62 -544484398 -1052540892 1501266369 -1895464190
            -1096161861 -2111635456 -72678213 83419826</internalNodes>
          <leafValues>
            -5.6769841909408569e-01 3.0156993865966797e-01</leafValues></_></weakClassifiers></_>
    <!-- stage 3 -->
    <_>
      <maxWeakCount>11</maxWeakCount>
      <stageThreshold>-1.3997594118118286e+00</stageThreshold>
      <weakClassifiers>
        <_>
          <internalNodes>
            0 -1 216 -1412551888 -1369159750 -716948001 -2002863681
            -1158726347 -7674389 -1076601884 2130246392</internalNodes>
          <leafValues>
            -6.3669067621231079e-01 2.4515235424041748e-01</leafValues></_>
        <_>
          <internalNodes>
            0 -1 101 -326831361 -191661998 310434009 -50529833
            -1503588297 -1502150621 1107417063 -11045913</internalNodes>
          <leafValues>
            -4.2579576373100281e-01 3.6123567819595337e-01</leafValues></_>
        <_>
          <internalNodes>
            0 -1 201 1975899636 1426391381 -972624642 1271252047
            -215944784 1225914910 -2140634898 140767231</internalNodes>
          <leafValues>
            -5.0036138296127319e-01 3.3481732010841370e-01</leafValues></_>
        <_>
          <internalNodes>
            0 -1 45 1972868868 328433935 -1281943290 -138677596
            1094801404 320047768 808054955 1062584219</internalNodes>
          <leafValues>
            -4.6920436620712280e-01 3.4647160768508911e-01</leafValues></_>
        <_>
          <internalNodes>
            0 -1 44 -8855760 1975305573 -1660725993 365642003 -53433424
            -603162431 -1024546390 147771131</internalNodes>
          <leafValues>
            -5.5715584754943848e-01 2.7100974321365356e-01</leafValues></_>
        <_>
          <internalNodes>
            0 -1 185 -1394736163 -1393262177 -2112415365 -927936040
            -1198847169 -1428485959 -1433589161 1255992282</internalNodes>
          <leafValues>
            -5.3688120841979980e-01 3.1268888711929321e-01</leafValues></_>
        <_>
          <internalNodes>
            0 -1 236 573705941 -1648549095 362116573 -1221082955
            -1567823171 -23543274 -622236739 215484856</internalNodes>
          <leafValues>
            -5.1878660917282104e-01 3.0444303154945374e-01</leafValues></_>
        <_>
          <internalNodes>
            0 -1 245 -66397324 1006951524 -795079748 496190105
            -1398526628 -1459615152 1110190335 713244415</internalNodes>
          <leafValues>
            -5.1432186365127563e-01 3.5280892252922058e-01</leafValues></_>
        <_>
          <internalNodes>
            0 -1 12 -539900121 -1042428026 1192088445 1940238622
            -655837215 -928264907 -2071922447 -789607617</internalNodes>
          <leafValues>
            -4.3383088707923889e-01 3.8188549876213074e-01</leafValues></_>
        <_>
          <internalNodes>
            0 -1 249 2001202830 1682477056 -738185203 1087371593
            2139695278 531628154 -131357810 1511983242</internalNodes>
          <leafValues>
            -5.4381591081619263e-01 3.1069582700729370e-01</leafValues></_>
        <_>
          <internalNodes>
            0 -1 1 -807405637 -1046496149 157405511 468428175 405981448
            -1349820408 440496547 1248032512</internalNodes>
          <leafValues>
            -4.4894999265670776e-01 3.7621188163757324e-01</leafValues></_></weakClassifiers></_>
    <!-- stage 4 -->
    <_>
      <maxWeakCount>11</maxWeakCount>
      <stageThreshold>-1.3536962270736694e+00</stageThreshold>
      <weakClassifiers>
        <_>
          <internalNodes>
            0 -1 151 -589762820 -73170416 -2079094699 -1219125211
            -536827730 -1165490144 610661335 994436215</internalNodes>
          <leafValues>
            -5.0672042369842529e-01 3.0015924572944641e-01</leafValues></_>
        <_>
          <internalNodes>
            0 -1 202 -1429331116 -2000006178 -1053174305 -890351366
            -74858732 -551836750 -338962188 1593752200</internalNodes>
          <leafValues>
            -6.1913579702377319e-01 2.3532702028751373e-01</leafValues></_>
        <_>
          <internalNodes>
            0 -1 72 1685910135 -195708718 -2078999051 -596115722
            1783086710 -129839504 1414657975 -11017217</internalNodes>
          <leafValues>
            -3.5279786586761475e-01 4.1661468148231506e-01</leafValues></_>
        <_>
          <internalNodes>
            0 -1 118 -531373346 -8326886 1644254036 -170568924
            1141433550 604375278 1579516157 1326697819</internalNodes>
          <leafValues>
            -4.6027693152427673e-01 3.1092432141304016e-01</leafValues></_>
        <_>
          <internalNodes>
            0 -1 225 -783059984 2134790211 -518464385 492283063
            -645119660 -394059696 -124178212 1224693983</internalNodes>
          <leafValues>
            -4.5001417398452759e-01 3.1797370314598083e-01</leafValues></_>
        <_>
          <internalNodes>
            0 -1 24 1297477528 -215176998 1147224517 -618976486
            1528758282 -339663850 1375808119 1533215035</internalNodes>
          <leafValues>
            -5.2274596691131592e-01 2.8991523385047913e-01</leafValues></_>
        <_>
          <internalNodes>
            0 -1 250 1549006062 1354899654 -267299521 1083261658
            -787839302 633983498 -632572257 149682411</internalNodes>
          <leafValues>
            -5.3732162714004517e-01 2.5142589211463928e-01</leafValues></_>
        <_>
          <internalNodes>
            0 -1 190 -335560715 -47430356 -1342264391 -2068632325
            862417261 -1104663098 1199000923 -1448095873</internalNodes>
          <leafValues>
            -3.5097748041152954e-01 4.4334718585014343e-01</leafValues></_>
        <_>
          <internalNodes>
            0 -1 234 209716532 -1751380720 1901195771 -79736808
            978217405 -1081407485 -2067014693 260177949</internalNodes>
          <leafValues>
            -6.3557678461074829e-01 2.4787046015262604e-01</leafValues></_>
        <_>
          <internalNodes>
            0 -1 20 -665654568 911921670 268438808 -101809458 -910509400
            1123025073 -620746610 1071360</internalNodes>
          <leafValues>
            -6.6060501337051392e-01 2.2070482373237610e-01</leafValues></_>
        <_>
          <internalNodes>
            0 -1 58 -1182007299 149003650 -804171307 -1912610516
            677933304 -1987276232 -375320235 -637810485</internalNodes>
          <leafValues>
            -3.9489117264747620e-01 4.0542027354240417e-01</leafValues></_></weakClassifiers></_>
    <!-- stage 5 -->
    <_>
      <maxWeakCount>14</maxWeakCount>
      <stageThreshold>-1.2418037652969360e+00</stageThreshold>
      <weakClassifiers>
        <_>
          <internalNodes>
            0 -1 262 1285473230 274710742 1082180270 298501071
            1279476171 1891828184 -1154483494 2147449567</internalNodes>
          <leafValues>
            -4.8313090205192566e-01 2.8435266017913818e-01</leafValues></_>
        <_>
          <internalNodes>
            0 -1 76 -15739696 1459712272 -1741303212 -216158181
            -1903429468 139133633 272679416 2138533691</internalNodes>
          <leafValues>
            -4.3622729182243347e-01 3.1058624386787415e-01</leafValues></_>
        <_>
          <internalNodes>
            0 -1 116 -86450256 -713236224 135714065 1090906483
            -1024790150 -1995750839 -2008750037 258701867</internalNodes>
          <leafValues>
            -5.2977734804153442e-01 2.4739903211593628e-01</leafValues></_>
        <_>
          <internalNodes>
            0 -1 152 -8484212 -1030454536 -1031250604 -492919112
            -128542698 -1432418304 -314150560 -1342177617</internalNodes>
          <leafValues>
            -5.2289748191833496e-01 2.8002491593360901e-01</leafValues></_>
        <_>
          <internalNodes>
            0 -1 178 17695121 -619432488 1493228019 1608462748 480813790
            -74225256 1022933465 730878448</internalNodes>
          <leafValues>
            -4.3327915668487549e-01 3.3754009008407593e-01</leafValues></_>
        <_>
          <internalNodes>
            0 -1 39 1373598719 994097602 -1660472869 698945930
            1834180874 -1817603072 -1080882993 1934574091</internalNodes>
          <leafValues>
            -4.4590187072753906e-01 3.2231578230857849e-01</leafValues></_>
        <_>
          <internalNodes>
            0 -1 196 -1511056523 -1901662182 -1859348003 101880089
            -1297656996 -1901600567 -1680989135 784533873</internalNodes>
          <leafValues>
            -5.9310120344161987e-01 2.1692653000354767e-01</leafValues></_>
        <_>
          <internalNodes>
            0 -1 79 -69208134 -605301519 -227347781 1399042227
            1551078574 -830011843 3640059 -888561013</internalNodes>
          <leafValues>
            -3.1619662046432495e-01 4.6286076307296753e-01</leafValues></_>
        <_>
          <internalNodes>
            0 -1 115 -20065705 -1351362227 1208767349 -731066273
            1486305819 -1467284444 -1060881433 -1225530553</internalNodes>
          <leafValues>
            -3.9303371310234070e-01 3.7754824757575989e-01</leafValues></_>
        <_>
          <internalNodes>
            0 -1 256 -1972150608 402669588 341313656 993022680
            -367316254 -2010111991 143526126 174014715</internalNodes>
          <leafValues>
            -5.6008017063140869e-01 2.6963746547698975e-01</leafValues></_>
        <_>
          <internalNodes>
            0 -1 207 -820645558 334094636 -884898611 33984694 -547125881
            1342882185 2126237645 4722905</internalNodes>
          <leafValues>
            -6.1749941110610962e-01 2.3795050382614136e-01</leafValues></_>
        <_>
          <internalNodes>
            0 -1 87 -180169536 1636139870 1238369682 394394751
            -742381847 -1212333427 1361195146 827717551</internalNodes>
          <leafValues>
            -4.9184390902519226e-01 3.1626605987548828e-01</leafValues></_>
        <_>
          <internalNodes>
            0 -1 157 -935999322 -577707188 404056319 2112184322 1155527
            -1694401877 -1806455585 -888938246</internalNodes>
          <leafValues>
            -3.9424693584442139e-01 3.8296857476234436e-01</leafValues></_>
        <_>
          <internalNodes>
            0 -1 156 -625811460 -937638112 -2146823815 688218393
            -194752224 -1435913968 -245830183 520827654</internalNodes>
          <leafValues>
            -4.7793835401535034e-01 3.3250981569290161e-01</leafValues></_></weakClassifiers></_>
    <!-- stage 6 -->
    <_>
      <maxWeakCount>16</maxWeakCount>
      <stageThreshold>-1.3499979972839355e+00</stageThreshold>
      <weakClassifiers>
        <_>
          <internalNodes>
            0 -1 122 -1574913 261093311 2144238339 368565757 499687352
            212343732 2104446976 -16705</internalNodes>
          <leafValues>
            -3.0442401766777039e-01 4.0477576851844788e-01</leafValues></_>
        <_>
          <internalNodes>
            0 -1 187 -1898574572 -1426930229 965794041 1155068248
            -1347456466 -1087351653 -1680715792 1587080632</internalNodes>
          <leafValues>
            -6.1575722694396973e-01 2.1396219730377197e-01</leafValues></_>
        <_>
          <internalNodes>
            0 -1 102 679721055 1935477585 -288164689 -564273687
            -513461705 -279735769 -1258253401 -550488634</internalNodes>
          <leafValues>
            -3.6115300655364990e-01 3.4867349267005920e-01</leafValues></_>
        <_>
          <internalNodes>
            0 -1 46 1163899392 1427752868 1167425060 -6569487 835137775
            319127984 1901163708 2133848462</internalNodes>
          <leafValues>
            -4.4019326567649841e-01 3.0816522240638733e-01</leafValues></_>
        <_>
          <internalNodes>
            0 -1 206 374867536 -594773712 -750395949 1601724884
            -1681082696 490768092 457231352 170395964</internalNodes>
          <leafValues>
            -5.5528301000595093e-01 2.0637336373329163e-01</leafValues></_>
        <_>
          <internalNodes>
            0 -1 43 -77745929 -143449343 2008940447 -15913297 2080421336
            -601525058 505682615 -1089622854</internalNodes>
          <leafValues>
            -2.7754941582679749e-01 5.0356179475784302e-01</leafValues></_>
        <_>
          <internalNodes>
            0 -1 140 -294977828 -334244424 -1367072012 -1399770287
            1778910755 -838699934 1749215043 -412193255</internalNodes>
          <leafValues>
            -4.7868791222572327e-01 2.7656990289688110e-01</leafValues></_>
        <_>
          <internalNodes>
            0 -1 257 1511196740 910819794 679828765 1430327733
            1518863048 695388360 -1971926806 679176411</internalNodes>
          <leafValues>
            -4.4314014911651611e-01 3.1622526049613953e-01</leafValues></_>
        <_>
          <internalNodes>
            0 -1 97 -20707951 -805581311 1836557301 1571762560
            -1466334805 -1935937649 -450469445 -913849185</internalNodes>
          <leafValues>
            -3.2244217395782471e-01 4.3791660666465759e-01</leafValues></_>
        <_>
          <internalNodes>
            0 -1 119 -1575537733 -536887704 -1489277936 -145535468
            69254654 -1679713297 1156095993 -537006595</internalNodes>
          <leafValues>
            -2.8077375888824463e-01 4.7707077860832214e-01</leafValues></_>
        <_>
          <internalNodes>
            0 -1 2 -1007434765 -1966858 -286266217 -739017105 -755530011
            -696254473 -727382638 -144620719</internalNodes>
          <leafValues>
            -3.2590723037719727e-01 4.3577289581298828e-01</leafValues></_>
        <_>
          <internalNodes>
            0 -1 77 -161157978 -233754477 2015543388 1431786205
            -933558500 -1575350208 1510495312 2132234355</internalNodes>
          <leafValues>
            -4.8944067955017090e-01 3.1716951727867126e-01</leafValues></_>
        <_>
          <internalNodes>
            0 -1 246 -94440130 -116895692 -1811878824 -125781504
            142212026 -1946129368 1787506927 177724379</internalNodes>
          <leafValues>
            -4.9493157863616943e-01 2.6803746819496155e-01</leafValues></_>
        <_>
          <internalNodes>
            0 -1 142 -1265819558 1820485726 9491607 1007342543
            -900517822 180489233 -934732831 -1497491850</internalNodes>
          <leafValues>
            -5.2316904067993164e-01 2.8406000137329102e-01</leafValues></_>
        <_>
          <internalNodes>
            0 -1 78 -631177518 -235813143 -589965 -751305161 -251920756
            -595624539 -1678595413 -886083448</internalNodes>
          <leafValues>
            -3.4034436941146851e-01 4.3356987833976746e-01</leafValues></_>
        <_>
          <internalNodes>
            0 -1 223 1649954568 1500516355 820251463 398861917 102403183
            -1101119031 314640559 828376126</internalNodes>
          <leafValues>
            -5.7233697175979614e-01 2.7944993972778320e-01</leafValues></_></weakClassifiers></_>
    <!-- stage 7 -->
    <_>
      <maxWeakCount>16</maxWeakCount>
      <stageThreshold>-1.0009415149688721e+00</stageThreshold>
      <weakClassifiers>
        <_>
          <internalNodes>
            0 -1 251 1146241607 -27309849 1141788879 -498354629
            -1605222293 -827622873 -729689249 2129648886</internalNodes>
          <leafValues>
            -3.8179799914360046e-01 3.1301182508468628e-01</leafValues></_>
        <_>
          <internalNodes>
            0 -1 42 -69863717 -109868705 1514182619 -786726113
            -2146908145 -1070135290 -1472224710 -669024248</internalNodes>
          <leafValues>
            -3.3337017893791199e-01 3.4738633036613464e-01</leafValues></_>
        <_>
          <internalNodes>
            0 -1 211 1095889264 1431389649 1208778970 357944791
            1311727864 1769238853 1275077808 1281615103</internalNodes>
          <leafValues>
            -4.8715686798095703e-01 2.4187965691089630e-01</leafValues></_>
        <_>
          <internalNodes>
            0 -1 34 -1370759721 1257162428 650035005 -901203716
            -41945169 -1929593244 779483071 1850729198</internalNodes>
          <leafValues>
            -3.2080152630805969e-01 3.7834593653678894e-01</leafValues></_>
        <_>
          <internalNodes>
            0 -1 145 -27799045 -1382383393 135661073 147686087
            -108050052 -1731149687 -280677342 -1952457985</internalNodes>
          <leafValues>
            -3.6536899209022522e-01 3.4407454729080200e-01</leafValues></_>
        <_>
          <internalNodes>
            0 -1 146 -393562898 -587062142 419484245 1061716098
            1811960306 1244790818 420078520 171407234</internalNodes>
          <leafValues>
            -4.4819501042366028e-01 2.7509543299674988e-01</leafValues></_>
        <_>
          <internalNodes>
            0 -1 106 1048532503 101388296 285409921 323240464 34513384
            32843913 203961338 -67133904</internalNodes>
          <leafValues>
            -3.7002077698707581e-01 3.4041237831115723e-01</leafValues></_>
        <_>
          <internalNodes>
            0 -1 52 -1426195239 -169523952 -7364817 -542808913 388038540
            -314683907 -1248809809 -146436417</internalNodes>
          <leafValues>
            -2.9570400714874268e-01 4.5888820290565491e-01</leafValues></_>
        <_>
          <internalNodes>
            0 -1 274 198511255 274346295 18519039 1480630782 -805203260
            -359874536 -692270126 1309079888</internalNodes>
          <leafValues>
            -4.0747860074043274e-01 3.2816183567047119e-01</leafValues></_>
        <_>
          <internalNodes>
            0 -1 180 -1230972359 -1992548144 -645672587 -1678036903
            -1153764704 -66551794 1042415768 724177242</internalNodes>
          <leafValues>
            -4.3588411808013916e-01 2.8521692752838135e-01</leafValues></_>
        <_>
          <internalNodes>
            0 -1 292 -1040452189 1711137889 -1074532487 707620843
            -25774947 -1342300747 -1347162433 -751321477</internalNodes>
          <leafValues>
            -2.8578168153762817e-01 4.9063378572463989e-01</leafValues></_>
        <_>
          <internalNodes>
            0 -1 174 -805372161 -1188795722 721240310 639421434
            -25342629 2098218524 -67960997 -677188361</internalNodes>
          <leafValues>
            -2.8816729784011841e-01 4.3210038542747498e-01</leafValues></_>
        <_>
          <internalNodes>
            0 -1 126 -716768272 223185521 -234689195 -1798520187
            -341132502 -2028060595 1394923647 -43113549</internalNodes>
          <leafValues>
            -3.8950261473655701e-01 3.3323436975479126e-01</leafValues></_>
        <_>
          <internalNodes>
            0 -1 130 1024851729 719249875 319918929 1574637937 702077231
            -66878749 1473983315 1572337377</internalNodes>
          <leafValues>
            -4.2798036336898804e-01 3.2669439911842346e-01</leafValues></_>
        <_>
          <internalNodes>
            0 -1 231 1817500592 369152018 -2043208528 390189058
            -1203697456 -2013116004 769731262 143466045</internalNodes>
          <leafValues>
            -5.0554376840591431e-01 2.5720241665840149e-01</leafValues></_>
        <_>
          <internalNodes>
            0 -1 73 -893004417 1978739895 -2123512077 -537678339
            1634653693 -1167098251 -713656842 -78712097</internalNodes>
          <leafValues>
            -2.8105387091636658e-01 5.3019028902053833e-01</leafValues></_></weakClassifiers></_>
    <!-- stage 8 -->
    <_>
      <maxWeakCount>16</maxWeakCount>
      <stageThreshold>-1.1941090822219849e+00</stageThreshold>
      <weakClassifiers>
        <_>
          <internalNodes>
            0 -1 48 -607920193 -602214022 -2125261543 77423027
            -1364023051 -802120668 -696225705 -493384981</internalNodes>
          <leafValues>
            -4.1034898161888123e-01 2.9170230031013489e-01</leafValues></_>
        <_>
          <internalNodes>
            0 -1 22 -615578560 -116924334 -1528814691 -1278028557
            671678464 436604437 17238592 860830651</internalNodes>
          <leafValues>
            -5.9611594676971436e-01 1.7881250381469727e-01</leafValues></_>
        <_>
          <internalNodes>
            0 -1 213 -702561178 1141956674 -1827579688 -788053760
            -2008892678 14835713 -829494534 16182202</internalNodes>
          <leafValues>
            -5.9997177124023438e-01 2.2962862253189087e-01</leafValues></_>
        <_>
          <internalNodes>
            0 -1 293 -1881147917 31931188 2130335719 817102143
            -841169311 175191956 -939894843 -178784937</internalNodes>
          <leafValues>
            -3.2592827081680298e-01 3.5296633839607239e-01</leafValues></_>
        <_>
          <internalNodes>
            0 -1 85 -750595568 855647248 -1723829481 1867453334 51906988
            -1568461011 33628636 2038904864</internalNodes>
          <leafValues>
            -5.1863795518875122e-01 2.3685899376869202e-01</leafValues></_>
        <_>
          <internalNodes>
            0 -1 69 -76576071 -677426547 -1055348493 -712793470
            -1260607330 -1274444029 -525721559 -968359936</internalNodes>
          <leafValues>
            -4.3022507429122925e-01 2.6076763868331909e-01</leafValues></_>
        <_>
          <internalNodes>
            0 -1 205 -871366020 -1000687972 -1879001640 822661586
            -213802508 -7614455 -875581032 724043832</internalNodes>
          <leafValues>
            -5.4133838415145874e-01 1.9765247404575348e-01</leafValues></_>
        <_>
          <internalNodes>
            0 -1 38 1427390275 -1507868388 -1819276451 -1800322798
            -217323597 -2033310526 -511127628 -2007241814</internalNodes>
          <leafValues>
            -3.8391780853271484e-01 3.2395139336585999e-01</leafValues></_>
        <_>
          <internalNodes>
            0 -1 265 -460012457 108216387 -1005268581 -301457249
            680738820 -264159219 -401945944 1784406727</internalNodes>
          <leafValues>
            -4.1114303469657898e-01 3.0936309695243835e-01</leafValues></_>
        <_>
          <internalNodes>
            0 -1 82 -1711838582 270807046 272667893 -1856776303
            1789493420 -1138534232 -260996647 -1301026676</internalNodes>
          <leafValues>
            -3.9138394594192505e-01 3.1835374236106873e-01</leafValues></_>
        <_>
          <internalNodes>
            0 -1 129 41152698 1227336330 -1100504784 1996069856
            620806023 -1905197424 -1883996390 -47227</internalNodes>
          <leafValues>
            -3.3962926268577576e-01 3.7229663133621216e-01</leafValues></_>
        <_>
          <internalNodes>
            0 -1 137 -652937942 -708177136 605217981 500646206
            1900105776 -134011901 501492699 803039003</internalNodes>
          <leafValues>
            -3.9556747674942017e-01 3.5375496745109558e-01</leafValues></_>
        <_>
          <internalNodes>
            0 -1 197 1398758239 1163204630 -783235945 -962723746
            1871145295 1090652672 1296225243 -1433231109</internalNodes>
          <leafValues>
            -4.1275298595428467e-01 3.4811922907829285e-01</leafValues></_>
        <_>
          <internalNodes>
            0 -1 258 -827968138 -880536296 -1928412774 141055264
            -2145236246 -1975383634 -397748070 2834889</internalNodes>
          <leafValues>
            -5.4631721973419189e-01 2.6083126664161682e-01</leafValues></_>
        <_>
          <internalNodes>
            0 -1 91 239838007 1066670290 352782293 1408090652 950006679
            -1130831744 567366031 2132665136</internalNodes>
          <leafValues>
            -4.2169243097305298e-01 3.1763049960136414e-01</leafValues></_>
        <_>
          <internalNodes>
            0 -1 183 -111292693 -2021209203 -123682810 -1092033766
            -767447034 -2012530675 1670282501 -815471160</internalNodes>
          <leafValues>
            -4.0144827961921692e-01 3.7541750073432922e-01</leafValues></_></weakClassifiers></_>
    <!-- stage 9 -->
    <_>
      <maxWeakCount>17</maxWeakCount>
      <stageThreshold>-1.0499857664108276e+00</stageThreshold>
      <weakClassifiers>
        <_>
          <internalNodes>
            0 -1 92 -135040673 -2132677697 1100501505 27781157 285759648
            76332681 25393680 -536871220</internalNodes>
          <leafValues>
            -3.7370243668556213e-01 2.8596645593643188e-01</leafValues></_>
        <_>
          <internalNodes>
            0 -1 247 675286128 2058229985 1157682141 2105016660
            -1198994768 -73741432 847313406 792205496</internalNodes>
          <leafValues>
            -4.8501193523406982e-01 2.1890756487846375e-01</leafValues></_>
        <_>
          <internalNodes>
            0 -1 10 -973087493 -1051990797 2129543024 -550034477
            1702053487 -864034946 1364838374 -536872469</internalNodes>
          <leafValues>
            -2.2564150393009186e-01 4.9687501788139343e-01</leafValues></_>
        <_>
          <internalNodes>
            0 -1 94 1921803006 -122425414 -18649106 -81039600 1150680575
            -1116416810 -9222209 -15247866</internalNodes>
          <leafValues>
            -2.0933896303176880e-01 4.7807484865188599e-01</leafValues></_>
        <_>
          <internalNodes>
            0 -1 139 -12977189 -400694661 -1783340273 -843871337
            -326435346 -1441733726 -1710543877 -2067372610</internalNodes>
          <leafValues>
            -3.5903352499008179e-01 3.6510306596755981e-01</leafValues></_>
        <_>
          <internalNodes>
            0 -1 222 -663085856 488255814 1312960803 1432682523
            -1999994711 627197626 949242539 1340819611</internalNodes>
          <leafValues>
            -4.5438882708549500e-01 2.4895557761192322e-01</leafValues></_>
        <_>
          <internalNodes>
            0 -1 149 -68772908 -1040510131 1384550593 1612126080
            -884997814 1339703809 619579906 -1146156210</internalNodes>
          <leafValues>
            -3.8690167665481567e-01 3.2008355855941772e-01</leafValues></_>
        <_>
          <internalNodes>
            0 -1 289 -1447569547 -1915321889 1897091455 -1253715588
            -779699952 -1154248541 -1990333440 193908816</internalNodes>
          <leafValues>
            -4.4720137119293213e-01 2.8790718317031860e-01</leafValues></_>
        <_>
          <internalNodes>
            0 -1 164 -335808553 -1363871753 258978613 683522991
            -172118095 -1243597442 -390134509 -1141902593</internalNodes>
          <leafValues>
            -2.7686706185340881e-01 4.6294915676116943e-01</leafValues></_>
        <_>
          <internalNodes>
            0 -1 40 -1588600589 606110860 -1715447529 1216626744
            -2122185786 -436026713 957077758 418932412</internalNodes>
          <leafValues>
            -4.3857914209365845e-01 2.8800588846206665e-01</leafValues></_>
        <_>
          <internalNodes>
            0 -1 100 -626483526 1567338752 1171395197 -1151995094
            1812570542 1846805129 135594029 433834732</internalNodes>
          <leafValues>
            -4.5077827572822571e-01 2.9539865255355835e-01</leafValues></_>
        <_>
          <internalNodes>
            0 -1 125 -137104472 -1853390200 302777589 1599902226
            446821563 -2113699711 1628877226 -1056309006</internalNodes>
          <leafValues>
            -4.0584883093833923e-01 3.4145936369895935e-01</leafValues></_>
        <_>
          <internalNodes>
            0 -1 21 -1570992002 -121519939 -1609515007 -212129091
            1145161747 117986310 -928668631 2063686480</internalNodes>
          <leafValues>
            -5.0693684816360474e-01 2.4191322922706604e-01</leafValues></_>
        <_>
          <internalNodes>
            0 -1 23 -365804722 2063631226 -1659678639 -1593438104
            -2010054133 -719092720 1796155499 657925943</internalNodes>
          <leafValues>
            -4.9167704582214355e-01 2.6181310415267944e-01</leafValues></_>
        <_>
          <internalNodes>
            0 -1 226 -1668320137 1373505405 251628666 1566851065
            -1794966574 2130732844 1211164264 -1126500705</internalNodes>
          <leafValues>
            -3.2926449179649353e-01 3.9313670992851257e-01</leafValues></_>
        <_>
          <internalNodes>
            0 -1 17 -272212441 -372391680 -653454241 2001732870
            -784981453 814842372 1669433425 -1016743408</internalNodes>
          <leafValues>
            -4.4329497218132019e-01 2.9626110196113586e-01</leafValues></_>
        <_>
          <internalNodes>
            0 -1 148 -514800668 951066635 1266937205 252285195
            1352139232 -592381816 -1971040900 1051412527</internalNodes>
          <leafValues>
            -4.9916461110115051e-01 2.5703030824661255e-01</leafValues></_></weakClassifiers></_>
    <!-- stage 10 -->
    <_>
      <maxWeakCount>16</maxWeakCount>
      <stageThreshold>-1.1758522987365723e+00</stageThreshold>
      <weakClassifiers>
        <_>
          <internalNodes>
            0 -1 173 -2001358881 -1428370229 -1466580137 -1940333763
            -1159000201 -1985301575 -1882848240 147704012</internalNodes>
          <leafValues>
            -5.1692306995391846e-01 2.4888889491558075e-01</leafValues></_>
        <_>
          <internalNodes>
            0 -1 266 -971029995 -355613699 -1063682721 653586965
            1207652689 -286752684 1402008469 2058019831</internalNodes>
          <leafValues>
            -4.4653880596160889e-01 2.5178676843643188e-01</leafValues></_>
        <_>
          <internalNodes>
            0 -1 198 -1483267209 -1969163058 -514356035 -2034567411
            -1151783567 -1081934807 -1678751231 2129455652</internalNodes>
          <leafValues>
            -5.2162551879882812e-01 2.0154684782028198e-01</leafValues></_>
        <_>
          <internalNodes>
            0 -1 99 541652575 -655255718 -1476375777 -644605614
            -771126429 4592194 -1340059516 -136425386</internalNodes>
          <leafValues>
            -3.4895145893096924e-01 3.4688085317611694e-01</leafValues></_>
        <_>
          <internalNodes>
            0 -1 278 -1002449503 537182535 18192991 81392020 1418434040
            -966492143 243940 -1867517565</internalNodes>
          <leafValues>
            -3.9278134703636169e-01 2.8952893614768982e-01</leafValues></_>
        <_>
          <internalNodes>
            0 -1 175 -167717480 -1712324344 839307761 361575440
            -1928481640 706413189 -1114956612 212339483</internalNodes>
          <leafValues>
            -4.8457300662994385e-01 2.3899158835411072e-01</leafValues></_>
        <_>
          <internalNodes>
            0 -1 286 -213919273 1978725739 1786703733 846281143
            -109596245 -1367933057 737121711 -97527625</internalNodes>
          <leafValues>
            -2.6161664724349976e-01 5.3709685802459717e-01</leafValues></_>
        <_>
          <internalNodes>
            0 -1 0 -104542222 -2078702933 -1568615499 -1923628627
            1379980044 566302898 1582361381 49484115</internalNodes>
          <leafValues>
            -4.2904728651046753e-01 3.2455667853355408e-01</leafValues></_>
        <_>
          <internalNodes>
            0 -1 96 -604963153 -246173179 -52691247 1366415282
            -568676450 -8389506 376561819 -1185166198</internalNodes>
          <leafValues>
            -3.3366587758064270e-01 4.3203759193420410e-01</leafValues></_>
        <_>
          <internalNodes>
            0 -1 212 -1349905104 -1440874149 -2130216481 -1458414697
            2024745813 -653533047 942612808 -285328772</internalNodes>
          <leafValues>
            -4.8639988899230957e-01 2.7438220381736755e-01</leafValues></_>
        <_>
          <internalNodes>
            0 -1 269 134352501 427895280 17158591 -1084411682 1770023798
            -1165295483 -71215652 720567935</internalNodes>
          <leafValues>
            -5.4713690280914307e-01 2.3658226430416107e-01</leafValues></_>
        <_>
          <internalNodes>
            0 -1 181 745014388 -1747696912 302054613 1057511773
            466097065 -1268932444 2025912536 746198244</internalNodes>
          <leafValues>
            -5.7515138387680054e-01 2.1000549197196960e-01</leafValues></_>
        <_>
          <internalNodes>
            0 -1 217 -67113121 -1981104460 -16916869 -2067810753
            135819284 -590033156 1702121331 -859121737</internalNodes>
          <leafValues>
            -3.3613449335098267e-01 3.8872709870338440e-01</leafValues></_>
        <_>
          <internalNodes>
            0 -1 287 116856083 1317871711 356276975 196399470
            -1557925116 -548069191 -658683312 106473984</internalNodes>
          <leafValues>
            -5.3416913747787476e-01 2.7226328849792480e-01</leafValues></_>
        <_>
          <internalNodes>
            0 -1 203 -704686122 -639303820 -570440192 -1779695873
            -207108944 -1987332136 -427832866 -1970684177</internalNodes>
          <leafValues>
            -3.2586571574211121e-01 4.2777740955352783e-01</leafValues></_>
        <_>
          <internalNodes>
            0 -1 90 741504480 -313609762 2064085973 -417950740 540739997
            -884759869 511906295 2073550940</internalNodes>
          <leafValues>
            -4.6294122934341431e-01 3.0971163511276245e-01</leafValues></_></weakClassifiers></_>
    <!-- stage 11 -->
    <_>
      <maxWeakCount>14</maxWeakCount>
      <stageThreshold>-1.0881159305572510e+00</stageThreshold>
      <weakClassifiers>
        <_>
          <internalNodes>
            0 -1 13 -958676369 -855904342 -939557197 -114330029
            896736807 -2072610481 1105598450 -1055392909</internalNodes>
          <leafValues>
            -3.0365511775016785e-01 3.4726688265800476e-01</leafValues></_>
        <_>
          <internalNodes>
            0 -1 60 -20136708 -556268970 -1341177505 -1121789795
            -1340963650 -1129475880 -1306071361 -1961880304</internalNodes>
          <leafValues>
            -3.2850086688995361e-01 3.0675715208053589e-01</leafValues></_>
        <_>
          <internalNodes>
            0 -1 195 -4221969 -2033765933 -938183018 780997021
            -1182058475 -828647040 -1421092556 1337916341</internalNodes>
          <leafValues>
            -4.2963680624961853e-01 2.4564175307750702e-01</leafValues></_>
        <_>
          <internalNodes>
            0 -1 215 301465491 1366409203 528479902 300285823 -285749000
            -1716006945 -143008801 -840572969</internalNodes>
          <leafValues>
            -1.8236148357391357e-01 5.3728449344635010e-01</leafValues></_>
        <_>
          <internalNodes>
            0 -1 63 -243337567 -193727936 -339756389 1395906402
            2103176846 -49393642 -666965365 -77869925</internalNodes>
          <leafValues>
            -2.7691119909286499e-01 4.3666702508926392e-01</leafValues></_>
        <_>
          <internalNodes>
            0 -1 165 -1608501392 -754171701 -976659085 1595617405
            688952792 -310275110 1673698297 1002318200</internalNodes>
          <leafValues>
            -4.9590158462524414e-01 2.1264556050300598e-01</leafValues></_>
        <_>
          <internalNodes>
            0 -1 95 -615260173 -732442540 399334408 15534184 -402326956
            -258732988 2074433618 -1716002</internalNodes>
          <leafValues>
            -4.1470938920974731e-01 2.8935748338699341e-01</leafValues></_>
        <_>
          <internalNodes>
            0 -1 53 2002761844 -1189476064 -1450412878 1972490513
            1096910021 1771737369 2051736572 967471326</internalNodes>
          <leafValues>
            -3.9175042510032654e-01 3.0796378850936890e-01</leafValues></_>
        <_>
          <internalNodes>
            0 -1 35 878154542 50479236 -1655036939 559130919 1351221956
            1945809048 1128423915 1739184671</internalNodes>
          <leafValues>
            -4.6161249279975891e-01 2.6152098178863525e-01</leafValues></_>
        <_>
          <internalNodes>
            0 -1 160 -985160060 -2102013794 16815416 -334257838
            -787936736 -2008022040 -971912278 -138573238</internalNodes>
          <leafValues>
            -4.5993676781654358e-01 2.4430403113365173e-01</leafValues></_>
        <_>
          <internalNodes>
            0 -1 244 -761381806 -1080819196 22037365 1977602528
            -2011133816 -343269877 -2070148199 975315250</internalNodes>
          <leafValues>
            -4.2414298653602600e-01 2.8577524423599243e-01</leafValues></_>
        <_>
          <internalNodes>
            0 -1 193 -763867250 -82344163 837994937 862652159
            -1864043812 -292088219 -1502179653 -1074409297</internalNodes>
          <leafValues>
            -2.5520777702331543e-01 4.6671941876411438e-01</leafValues></_>
        <_>
          <internalNodes>
            0 -1 282 -1812753901 570447490 152064339 -1320396349
            -1412781891 -1350041495 1385636501 1104100289</internalNodes>
          <leafValues>
            -4.4555377960205078e-01 2.8573024272918701e-01</leafValues></_>
        <_>
          <internalNodes>
            0 -1 200 1393817456 1364922972 -2122280040 1809154082
            2122919984 -922023797 2040749112 -856882546</internalNodes>
          <leafValues>
            -3.7795504927635193e-01 3.3955651521682739e-01</leafValues></_></weakClassifiers></_>
    <!-- stage 12 -->
    <_>
      <maxWeakCount>18</maxWeakCount>
      <stageThreshold>-1.2188993692398071e+00</stageThreshold>
      <weakClassifiers>
        <_>
          <internalNodes>
            0 -1 15 1114636159 1325276766 -536643235 -615321988
            1409383427 -823066761 1416968019 -592971433</internalNodes>
          <leafValues>
            -2.7670753002166748e-01 3.6829838156700134e-01</leafValues></_>
        <_>
          <internalNodes>
            0 -1 54 214236889 580339651 -1255861769 -120003188
            -1864035749 -2144306941 -1257908605 -1338305670</internalNodes>
          <leafValues>
            -3.7624341249465942e-01 2.6142635941505432e-01</leafValues></_>
        <_>
          <internalNodes>
            0 -1 267 -966980457 -959028645 1069041 714531837 -1073675008
            -341243871 1465940185 1247456174</internalNodes>
          <leafValues>
            -4.4119518995285034e-01 2.2824850678443909e-01</leafValues></_>
        <_>
          <internalNodes>
            0 -1 114 1403896483 1398385943 1794044081 286631699
            1087783162 -1088852599 -1796013860 -605034614</internalNodes>
          <leafValues>
            -2.2415572404861450e-01 4.6400725841522217e-01</leafValues></_>
        <_>
          <internalNodes>
            0 -1 89 -2073821805 1323810732 2066965250 -1625572604
            358727615 -18420071 -1785336001 -671115943</internalNodes>
          <leafValues>
            -2.9841005802154541e-01 3.6402159929275513e-01</leafValues></_>
        <_>
          <internalNodes>
            0 -1 133 -798609921 -1582821011 1012499573 -1539486765
            -338007721 -1022884811 1753959035 -1145319765</internalNodes>
          <leafValues>
            -3.3725583553314209e-01 3.2170239090919495e-01</leafValues></_>
        <_>
          <internalNodes>
            0 -1 281 -239600263 186029004 1381057125 -1870425105
            -746326575 -374128475 -876375920 -727191310</internalNodes>
          <leafValues>
            -3.3387485146522522e-01 3.5209006071090698e-01</leafValues></_>
        <_>
          <internalNodes>
            0 -1 270 895094259 2019384921 1291241823 521477054
            1376465972 -1684430295 264780590 804175550</internalNodes>
          <leafValues>
            -3.5835331678390503e-01 3.6260253190994263e-01</leafValues></_>
        <_>
          <internalNodes>
            0 -1 220 -2136469328 -23182636 -2146116899 1427427829
            671928536 -365264664 -578770499 973607060</internalNodes>
          <leafValues>
            -5.4331392049789429e-01 1.8285445868968964e-01</leafValues></_>
        <_>
          <internalNodes>
            0 -1 30 1483640435 -785766415 -1090912261 -1086793678
            -1531268578 1070992831 -1058770149 -1701965533</internalNodes>
          <leafValues>
            -3.0623599886894226e-01 3.7976861000061035e-01</leafValues></_>
        <_>
          <internalNodes>
            0 -1 121 -803032370 -778956070 -1744829424 -215152528
            1081395390 -315447236 423772666 2137078530</internalNodes>
          <leafValues>
            -4.0946251153945923e-01 2.9309210181236267e-01</leafValues></_>
        <_>
          <internalNodes>
            0 -1 18 2122514074 431757845 -1726753026 889851528
            1036081408 286413226 1073960746 -433851745</internalNodes>
          <leafValues>
            -3.6185079813003540e-01 3.2813867926597595e-01</leafValues></_>
        <_>
          <internalNodes>
            0 -1 166 -1653820284 -540495224 1023466679 1569399438
            -1058397731 -1723137918 -606777154 192938116</internalNodes>
          <leafValues>
            -5.5880558490753174e-01 1.7979435622692108e-01</leafValues></_>
        <_>
          <internalNodes>
            0 -1 188 -357640356 -638959873 -269488389 1907502651
            -25954359 -41943049 -1116260373 -1424281526</internalNodes>
          <leafValues>
            -2.7142277359962463e-01 4.4169002771377563e-01</leafValues></_>
        <_>
          <internalNodes>
            0 -1 252 1715684539 1247600797 -1868840249 -62892897
            -1601740174 -752047953 1079667509 1493167099</internalNodes>
          <leafValues>
            -4.3320500850677490e-01 2.9533272981643677e-01</leafValues></_>
        <_>
          <internalNodes>
            0 -1 11 1417662183 -274145418 1874591571 1550147305
            1433862857 -553690505 -673611869 -751342861</internalNodes>
          <leafValues>
            -2.7346646785736084e-01 4.5680394768714905e-01</leafValues></_>
        <_>
          <internalNodes>
            0 -1 141 -1739091072 -2040620783 -1777953984 944122057
            1941680684 189661548 -473804590 -2133653806</internalNodes>
          <leafValues>
            -4.7159227728843689e-01 2.7228575944900513e-01</leafValues></_>
        <_>
          <internalNodes>
            0 -1 57 1681939831 -753094 -1609477801 1888125016 -628410373
            -1517583735 -1341468503 2119854784</internalNodes>
          <leafValues>
            -4.5773372054100037e-01 3.0734452605247498e-01</leafValues></_></weakClassifiers></_>
    <!-- stage 13 -->
    <_>
      <maxWeakCount>16</maxWeakCount>
      <stageThreshold>-8.7758666276931763e-01</stageThreshold>
      <weakClassifiers>
        <_>
          <internalNodes>
            0 -1 153 -1993083085 780849926 1771147477 369619762
            -124939469 -1613518205 1526850308 1454364388</internalNodes>
          <leafValues>
            -4.2341136932373047e-01 2.5269460678100586e-01</leafValues></_>
        <_>
          <internalNodes>
            0 -1 253 -553941377 -296082945 1107957591 -130649665
            -1753520560 -115505127 1570592065 1913656083</internalNodes>
          <leafValues>
            -4.4293269515037537e-01 2.4583037197589874e-01</leafValues></_>
        <_>
          <internalNodes>
            0 -1 184 -1228932617 250860030 -2034045707 -2030252019
            -553162412 -1506179444 -494523324 1340004098</internalNodes>
          <leafValues>
            -4.3890514969825745e-01 2.1949565410614014e-01</leafValues></_>
        <_>
          <internalNodes>
            0 -1 229 -1255133388 -300252948 1373117151 -1959964601
            -1587400619 -1148476837 -5203459 1955332308</internalNodes>
          <leafValues>
            -4.6475183963775635e-01 2.3025301098823547e-01</leafValues></_>
        <_>
          <internalNodes>
            0 -1 81 -645607000 -716087215 -788458337 1504126017
            -1005833829 -628105187 -1719465845 293798600</internalNodes>
          <leafValues>
            -4.7500318288803101e-01 2.2873643040657043e-01</leafValues></_>
        <_>
          <internalNodes>
            0 -1 167 -663094613 -1618826931 -981118821 1537075880
            8647087 -107046301 1073770667 -1622695837</internalNodes>
          <leafValues>
            -3.2697537541389465e-01 3.3250162005424500e-01</leafValues></_>
        <_>
          <internalNodes>
            0 -1 224 -705172225 1422982263 984819374 1899036530
            -2067347860 1151227133 -119376146 -568928274</internalNodes>
          <leafValues>
            -3.1776019930839539e-01 3.5985848307609558e-01</leafValues></_>
        <_>
          <internalNodes>
            0 -1 163 143711956 -1124039464 -2138872935 423104816
            -1590863363 -1953871870 1102597294 732629079</internalNodes>
          <leafValues>
            -4.2708098888397217e-01 2.7037259936332703e-01</leafValues></_>
        <_>
          <internalNodes>
            0 -1 37 -1750100191 1288131861 -1342078511 1418323533
            -544636880 -1899847227 -1500563012 -1970478943</internalNodes>
          <leafValues>
            -4.2954051494598389e-01 2.6236107945442200e-01</leafValues></_>
        <_>
          <internalNodes>
            0 -1 192 -800664952 1002500224 1343474310 466257920
            1277231352 984219801 43374750 461979900</internalNodes>
          <leafValues>
            -4.5148730278015137e-01 2.5051516294479370e-01</leafValues></_>
        <_>
          <internalNodes>
            0 -1 65 -368257316 743740350 1205958969 -1831363958
            -672364836 134551561 -1324944539 850383019</internalNodes>
          <leafValues>
            -4.5497399568557739e-01 2.7953162789344788e-01</leafValues></_>
        <_>
          <internalNodes>
            0 -1 260 -1219626982 419537442 813047829 -699379197
            -716623830 -125403072 -687150449 1755285506</internalNodes>
          <leafValues>
            -4.2624968290328979e-01 2.8010088205337524e-01</leafValues></_>
        <_>
          <internalNodes>
            0 -1 14 -1067990794 -708324494 -1999959404 -741663034 339780
            1898357264 1081265362 865067792</internalNodes>
          <leafValues>
            -5.6413638591766357e-01 1.9014523923397064e-01</leafValues></_>
        <_>
          <internalNodes>
            0 -1 120 774004016 864059468 -616414963 1057673244 436601324
            -357859199 1672152312 462314908</internalNodes>
          <leafValues>
            -5.9400963783264160e-01 1.9856524467468262e-01</leafValues></_>
        <_>
          <internalNodes>
            0 -1 113 1398137480 1431404850 -661894895 1364291602 794830
            -1050017641 -666806088 -1273432265</internalNodes>
          <leafValues>
            -3.9996623992919922e-01 2.9738935828208923e-01</leafValues></_>
        <_>
          <internalNodes>
            0 -1 204 881240759 -1039962020 46268521 595758146 1980963192
            17830689 1896636659 780135419</internalNodes>
          <leafValues>
            -4.8478794097900391e-01 2.4828381836414337e-01</leafValues></_></weakClassifiers></_>
    <!-- stage 14 -->
    <_>
      <maxWeakCount>17</maxWeakCount>
      <stageThreshold>-1.0410126447677612e+00</stageThreshold>
      <weakClassifiers>
        <_>
          <internalNodes>
            0 -1 143 -827331022 -1907695926 1293488471 1466353872
            1491763830 -1903451917 1451295605 1545982131</internalNodes>
          <leafValues>
            -4.5783132314682007e-01 2.2754490375518799e-01</leafValues></_>
        <_>
          <internalNodes>
            0 -1 264 1178995303 -1904763169 -1946150437 777974375
            1699045941 -819246613 2030886747 1590058751</internalNodes>
          <leafValues>
            -4.4133824110031128e-01 2.1481195092201233e-01</leafValues></_>
        <_>
          <internalNodes>
            0 -1 25 1343600610 1943732738 1343062257 -1319115901
            1911938368 1858156809 2017764067 1032426883</internalNodes>
          <leafValues>
            -3.6782658100128174e-01 2.8363701701164246e-01</leafValues></_>
        <_>
          <internalNodes>
            0 -1 109 159595027 -1395670656 1459934933 1469916104
            979174391 -1895196148 1859674547 1869564244</internalNodes>
          <leafValues>
            -4.3758916854858398e-01 2.1251362562179565e-01</leafValues></_>
        <_>
          <internalNodes>
            0 -1 291 -1178610319 -51136271 2096979953 -143675465
            -1610671811 -25182859 191364825 -7342599</internalNodes>
          <leafValues>
            -2.0163547992706299e-01 4.8771896958351135e-01</leafValues></_>
        <_>
          <internalNodes>
            0 -1 112 1974400940 863096497 -222298737 -214722685
            1867963884 -1742776715 980602504 -637546869</internalNodes>
          <leafValues>
            -2.9323843121528625e-01 3.7372022867202759e-01</leafValues></_>
        <_>
          <internalNodes>
            0 -1 55 -1970636850 -1817225783 -1238114875 -2134652907
            436349050 -1377417135 -1574706229 831464079</internalNodes>
          <leafValues>
            -4.0302932262420654e-01 2.7873733639717102e-01</leafValues></_>
        <_>
          <internalNodes>
            0 -1 235 -1530855951 -82230040 932835803 530405392
            -1212904005 -642530937 798388159 235017451</internalNodes>
          <leafValues>
            -3.9160907268524170e-01 2.7921715378761292e-01</leafValues></_>
        <_>
          <internalNodes>
            0 -1 177 -2398603 -1087754650 251312825 137133819 -940279760
            -602860235 -176874429 -47974914</internalNodes>
          <leafValues>
            -2.9892736673355103e-01 3.6044469475746155e-01</leafValues></_>
        <_>
          <internalNodes>
            0 -1 127 1680908451 -539421305 369144049 -612321151 853723
            -902168571 1415680443 1357863166</internalNodes>
          <leafValues>
            -3.8541612029075623e-01 3.0039864778518677e-01</leafValues></_>
        <_>
          <internalNodes>
            0 -1 103 497026064 372781144 45495 -1621138979 1485909472
            -1702179834 2071660936 976891532</internalNodes>
          <leafValues>
            -4.9128115177154541e-01 2.4634107947349548e-01</leafValues></_>
        <_>
          <internalNodes>
            0 -1 105 53998394 -1025589657 -1671070416 -310903180
            624214011 -1940920787 1941307287 -4289032</internalNodes>
          <leafValues>
            -3.1087899208068848e-01 3.8293781876564026e-01</leafValues></_>
        <_>
          <internalNodes>
            0 -1 27 -763182486 1933579678 872437770 -791502694
            -956206522 -1961350232 -247340473 2004260295</internalNodes>
          <leafValues>
            -4.4076764583587646e-01 2.8635269403457642e-01</leafValues></_>
        <_>
          <internalNodes>
            0 -1 124 -1929982225 -668115159 -704651265 -1820438866
            -163650398 -1430992338 558810319 -1345660020</internalNodes>
          <leafValues>
            -3.0103176832199097e-01 4.2064970731735229e-01</leafValues></_>
        <_>
          <internalNodes>
            0 -1 284 739497783 -1434319981 1493194357 432173818
            -351640576 -377320912 1277194276 1210112068</internalNodes>
          <leafValues>
            -5.0966560840606689e-01 2.4640507996082306e-01</leafValues></_>
        <_>
          <internalNodes>
            0 -1 36 -134284299 -715462732 -243289218 -9064218 2125789488
            -1068603311 -1206463365 -821437793</internalNodes>
          <leafValues>
            -2.9753798246383667e-01 4.3540000915527344e-01</leafValues></_>
        <_>
          <internalNodes>
            0 -1 3 2031581697 1202672876 -637468176 -183777238
            -233090252 738610465 -141815176 1474232383</internalNodes>
          <leafValues>
            -4.6978268027305603e-01 2.5700014829635620e-01</leafValues></_></weakClassifiers></_>
    <!-- stage 15 -->
    <_>
      <maxWeakCount>17</maxWeakCount>
      <stageThreshold>-1.2447962760925293e+00</stageThreshold>
      <weakClassifiers>
        <_>
          <internalNodes>
            0 -1 261 1254803374 273592474 1074810139 365961910
            1371555533 1017875337 1807854222 1003965386</internalNodes>
          <leafValues>
            -4.6098148822784424e-01 2.0783460140228271e-01</leafValues></_>
        <_>
          <internalNodes>
            0 -1 162 -1080833101 2051530169 -1676225071 -992505576
            -102454457 -845837720 1459750741 1247542769</internalNodes>
          <leafValues>
            -3.7464839220046997e-01 2.6346516609191895e-01</leafValues></_>
        <_>
          <internalNodes>
            0 -1 168 -200228124 -1107255038 17010581 355688517
            -1072308019 -1559902203 574983658 291610624</internalNodes>
          <leafValues>
            -5.7599556446075439e-01 1.5902914106845856e-01</leafValues></_>
        <_>
          <internalNodes>
            0 -1 74 -1533428009 -17084329 -720757918 -119732991
            -2040053449 -418025723 136438691 -59287886</internalNodes>
          <leafValues>
            -3.2803833484649658e-01 2.9616200923919678e-01</leafValues></_>
        <_>
          <internalNodes>
            0 -1 50 1791757915 -152113002 1294068957 -220938062
            -380823097 -90652663 1409907129 2119856352</internalNodes>
          <leafValues>
            -3.4753069281578064e-01 2.8906106948852539e-01</leafValues></_>
        <_>
          <internalNodes>
            0 -1 6 -448337949 -717819722 1162659031 -643054388 606286749
            -1710047013 51602787 -610058222</internalNodes>
          <leafValues>
            -3.0245652794837952e-01 3.4362855553627014e-01</leafValues></_>
        <_>
          <internalNodes>
            0 -1 230 -653274009 -668929628 538367272 -1724132950
            -516193025 -369075840 92879595 136105275</internalNodes>
          <leafValues>
            -3.7880489230155945e-01 2.8641220927238464e-01</leafValues></_>
        <_>
          <internalNodes>
            0 -1 84 -105388377 1931958135 2075850288 1969290675 71662761
            -1501571017 -369437014 -1275881841</internalNodes>
          <leafValues>
            -2.4868918955326080e-01 4.0848973393440247e-01</leafValues></_>
        <_>
          <internalNodes>
            0 -1 191 527056 446591120 1426906965 990908252 -1962503440
            -1153802050 822643610 456133812</internalNodes>
          <leafValues>
            -5.5004757642745972e-01 1.7264236509799957e-01</leafValues></_>
        <_>
          <internalNodes>
            0 -1 31 -1677212365 168494349 1745716693 -773912064
            -1072897817 -996964215 -1327848736 -1431332339</internalNodes>
          <leafValues>
            -3.5482347011566162e-01 3.0217590928077698e-01</leafValues></_>
        <_>
          <internalNodes>
            0 -1 147 -602245554 1027080564 -50249262 463103026 408295548
            -103270319 -1255596136 743133843</internalNodes>
          <leafValues>
            -4.1809952259063721e-01 2.6193857192993164e-01</leafValues></_>
        <_>
          <internalNodes>
            0 -1 111 -2019706845 -861952638 -1961342226 -1458757184
            -1939824397 11627047 -685047334 -1962901325</internalNodes>
          <leafValues>
            -4.0796408057212830e-01 2.6167935132980347e-01</leafValues></_>
        <_>
          <internalNodes>
            0 -1 241 2022707220 -1119416302 96850385 -785952033
            -265223856 135373451 -1063222856 436225172</internalNodes>
          <leafValues>
            -5.3352344036102295e-01 2.1411456167697906e-01</leafValues></_>
        <_>
          <internalNodes>
            0 -1 288 -178262585 -1358736300 1120396406 -589831329
            -2104281165 28541004 -57850992 -1867515833</internalNodes>
          <leafValues>
            -3.2418420910835266e-01 3.5910663008689880e-01</leafValues></_>
        <_>
          <internalNodes>
            0 -1 75 -1069321312 419477684 309478548 -200293622
            -1559536564 995571732 1143292140 2098152707</internalNodes>
          <leafValues>
            -4.9207413196563721e-01 2.2672000527381897e-01</leafValues></_>
        <_>
          <internalNodes>
            0 -1 159 -101235478 -716177449 -260054795 1304399408
            1624731785 -1758515313 -229395266 -265300837</internalNodes>
          <leafValues>
            -2.9522019624710083e-01 3.9624980092048645e-01</leafValues></_>
        <_>
          <internalNodes>
            0 -1 16 1190651626 1080591262 1125257364 -804785406
            1645339183 1342179714 260490675 591858403</internalNodes>
          <leafValues>
            -4.4214472174644470e-01 2.8576004505157471e-01</leafValues></_></weakClassifiers></_>
    <!-- stage 16 -->
    <_>
      <maxWeakCount>19</maxWeakCount>
      <stageThreshold>-1.4068132638931274e+00</stageThreshold>
      <weakClassifiers>
        <_>
          <internalNodes>
            0 -1 28 -320505585 -47722297 -2003909492 -259373490
            -905638581 -1814380543 -531512597 1950564695</internalNodes>
          <leafValues>
            -3.5090801119804382e-01 2.6122984290122986e-01</leafValues></_>
        <_>
          <internalNodes>
            0 -1 71 2003559936 982384644 760039458 -1088580045 26080232
            1052330387 293953636 1060009522</internalNodes>
          <leafValues>
            -4.7939229011535645e-01 1.8287432193756104e-01</leafValues></_>
        <_>
          <internalNodes>
            0 -1 285 -772015608 1073787961 1344008467 807711425
            1355544840 -1739302769 2053479111 146725879</internalNodes>
          <leafValues>
            -3.9360266923904419e-01 2.2845698893070221e-01</leafValues></_>
        <_>
          <internalNodes>
            0 -1 279 -1984974223 108986175 1845453355 770637481
            -1778468907 -9060355 -134314880 -711878658</internalNodes>
          <leafValues>
            -2.7713313698768616e-01 3.3929151296615601e-01</leafValues></_>
        <_>
          <internalNodes>
            0 -1 221 671880784 1044518356 -1421389547 1043939332
            -1467138336 -1413391688 172006297 439881740</internalNodes>
          <leafValues>
            -5.6672054529190063e-01 1.6573026776313782e-01</leafValues></_>
        <_>
          <internalNodes>
            0 -1 108 -551789187 84500171 -1043366287 89035311 336332576
            67905688 -1072466415 -72892881</internalNodes>
          <leafValues>
            -3.7967038154602051e-01 2.6533389091491699e-01</leafValues></_>
        <_>
          <internalNodes>
            0 -1 268 329889177 -1218543238 687981023 491183062
            -876743684 -104847922 -72365414 686561492</internalNodes>
          <leafValues>
            -3.8335365056991577e-01 2.6469385623931885e-01</leafValues></_>
        <_>
          <internalNodes>
            0 -1 199 -932072078 1970487055 -402862850 1298005477
            -413139248 -50331906 -1387475774 -1915748642</internalNodes>
          <leafValues>
            -2.7439367771148682e-01 3.9011010527610779e-01</leafValues></_>
        <_>
          <internalNodes>
            0 -1 68 -61972779 -1920415731 1191350553 2136363142
            -520036369 -60145472 -383542901 -1415970603</internalNodes>
          <leafValues>
            -3.1707215309143066e-01 3.4238427877426147e-01</leafValues></_>
        <_>
          <internalNodes>
            0 -1 107 370310416 -1655926710 -2147225579 -2007844720
            409671837 -838806999 699011465 2138994960</internalNodes>
          <leafValues>
            -5.3404831886291504e-01 2.1650703251361847e-01</leafValues></_>
        <_>
          <internalNodes>
            0 -1 8 -387257438 -880729911 159601852 1162440811 1342378073
            1326531985 1112146150 -770355517</internalNodes>
          <leafValues>
            -4.1517743468284607e-01 2.6419466733932495e-01</leafValues></_>
        <_>
          <internalNodes>
            0 -1 276 939661050 200409215 813792113 290359405 1226338572
            -1154252542 -1687360190 254777578</internalNodes>
          <leafValues>
            -4.2492789030075073e-01 2.6671791076660156e-01</leafValues></_>
        <_>
          <internalNodes>
            0 -1 233 -193527819 -591342638 -711896745 -1287395053
            -1626275312 -905426784 1738082491 -1969018005</internalNodes>
          <leafValues>
            -3.3588370680809021e-01 3.4781891107559204e-01</leafValues></_>
        <_>
          <internalNodes>
            0 -1 255 -132666427 -2147438398 370219281 488239827
            -1557585688 -1734301556 417544586 138399419</internalNodes>
          <leafValues>
            -3.2446610927581787e-01 3.5371267795562744e-01</leafValues></_>
        <_>
          <internalNodes>
            0 -1 259 -82666379 -803429552 395661991 951219412 -372717130
            822678966 -82838579 -2147352056</internalNodes>
          <leafValues>
            -3.9750245213508606e-01 2.8923422098159790e-01</leafValues></_>
        <_>
          <internalNodes>
            0 -1 51 -1037139083 425588830 -2038380401 323146099 57284676
            -1098497905 -191728626 1980167162</internalNodes>
          <leafValues>
            -3.8338980078697205e-01 3.0188757181167603e-01</leafValues></_>
        <_>
          <internalNodes>
            0 -1 238 -581251166 500183698 167805014 1157694399 274384130
            1237860480 -1429501249 758874831</internalNodes>
          <leafValues>
            -4.2766046524047852e-01 2.8148949146270752e-01</leafValues></_>
        <_>
          <internalNodes>
            0 -1 56 509023620 -1689541573 1350573269 -1883690418
            -1995053061 -1370848608 1261787227 -1417729534</internalNodes>
          <leafValues>
            -3.8311457633972168e-01 3.1688490509986877e-01</leafValues></_>
        <_>
          <internalNodes>
            0 -1 171 -2045510443 181133379 1343744403 1692201169
            957318209 -1970140233 1103520096 1178592304</internalNodes>
          <leafValues>
            -5.0425583124160767e-01 2.4335838854312897e-01</leafValues></_></weakClassifiers></_>
    <!-- stage 17 -->
    <_>
      <maxWeakCount>17</maxWeakCount>
      <stageThreshold>-1.0786861181259155e+00</stageThreshold>
      <weakClassifiers>
        <_>
          <internalNodes>
            0 -1 155 -799805221 -1801940980 -2080210744 -458826766
            -1056703886 1896938244 -804725915 -37693394</internalNodes>
          <leafValues>
            -3.4478673338890076e-01 2.5173011422157288e-01</leafValues></_>
        <_>
          <internalNodes>
            0 -1 228 -1222495996 -1802059240 1359075477 -832898567
            -238820044 -913588160 -305409824 1862563956</internalNodes>
          <leafValues>
            -5.2371323108673096e-01 1.7261125147342682e-01</leafValues></_>
        <_>
          <internalNodes>
            0 -1 104 572765978 -1562431410 967378256 -722196384
            118993038 33423910 472283838 -829677295</internalNodes>
          <leafValues>
            -3.2381922006607056e-01 2.9269391298294067e-01</leafValues></_>
        <_>
          <internalNodes>
            0 -1 134 -103107789 -834520411 -683325059 -581077189
            -271537353 -1265073765 1946665333 1801969701</internalNodes>
          <leafValues>
            -3.8354671001434326e-01 2.4714861810207367e-01</leafValues></_>
        <_>
          <internalNodes>
            0 -1 273 -649865551 -2011941631 1417761742 748417439
            -2129278551 -1877862392 -1054108760 -526134854</internalNodes>
          <leafValues>
            -2.8854084014892578e-01 3.3130875229835510e-01</leafValues></_>
        <_>
          <internalNodes>
            0 -1 70 -20022066 1581322136 -1413386120 562224347
            -1169932146 1064304771 -1710463282 705315848</internalNodes>
          <leafValues>
            -4.7653421759605408e-01 1.8865741789340973e-01</leafValues></_>
        <_>
          <internalNodes>
            0 -1 67 1850053109 1550060560 1287967660 -683664680
            516897350 1347309616 1090871298 -1074903549</internalNodes>
          <leafValues>
            -3.7157195806503296e-01 2.8231927752494812e-01</leafValues></_>
        <_>
          <internalNodes>
            0 -1 210 1347818762 894347649 1612106922 484782223
            -1264780672 1285425665 -1060512051 1172113547</internalNodes>
          <leafValues>
            -4.8140722513198853e-01 2.2910223901271820e-01</leafValues></_>
        <_>
          <internalNodes>
            0 -1 136 -112431554 922983282 1209010323 463078940 823163630
            -333053164 857264895 1845969511</internalNodes>
          <leafValues>
            -4.0387228131294250e-01 2.3642532527446747e-01</leafValues></_>
        <_>
          <internalNodes>
            0 -1 32 -1738832254 1918009632 1519174340 -695340578
            537666156 1883314176 541776532 846536000</internalNodes>
          <leafValues>
            -6.2835168838500977e-01 1.9426970183849335e-01</leafValues></_>
        <_>
          <internalNodes>
            0 -1 242 -671836580 1073622617 1811742233 1035484269
            -438008606 -304611972 112228490 -1706486773</internalNodes>
          <leafValues>
            -2.8203681111335754e-01 3.9055660367012024e-01</leafValues></_>
        <_>
          <internalNodes>
            0 -1 132 1741904858 241167319 -2140011982 1254951551
            35133696 -530315000 -653895728 -271582233</internalNodes>
          <leafValues>
            -3.1825011968612671e-01 3.3237019181251526e-01</leafValues></_>
        <_>
          <internalNodes>
            0 -1 280 201604373 768418713 -1759805283 472384785
            -1047816588 -1702236157 -268111180 744552964</internalNodes>
          <leafValues>
            -6.2404948472976685e-01 1.6433992981910706e-01</leafValues></_>
        <_>
          <internalNodes>
            0 -1 194 1157710150 1260986912 540317724 2038739586
            -926434720 1401446912 -490095368 -1968290965</internalNodes>
          <leafValues>
            -3.6487624049186707e-01 3.0046147108078003e-01</leafValues></_>
        <_>
          <internalNodes>
            0 -1 243 394523871 -8523410 2080970802 -1810283356
            -486603341 -1632486951 1505729407 -1472215494</internalNodes>
          <leafValues>
            -2.7646073698997498e-01 4.0649145841598511e-01</leafValues></_>
        <_>
          <internalNodes>
            0 -1 232 -11539744 -1023236640 353488600 -1793331564
            -2111145294 672177344 -2096428580 138873503</internalNodes>
          <leafValues>
            -4.7666412591934204e-01 2.2792258858680725e-01</leafValues></_>
        <_>
          <internalNodes>
            0 -1 176 1711805296 -1114360626 -385791589 2101219874
            -1148543544 -1970791267 79767976 413075094</internalNodes>
          <leafValues>
            -4.7565659880638123e-01 2.3489065468311310e-01</leafValues></_></weakClassifiers></_>
    <!-- stage 18 -->
    <_>
      <maxWeakCount>16</maxWeakCount>
      <stageThreshold>-1.0004122257232666e+00</stageThreshold>
      <weakClassifiers>
        <_>
          <internalNodes>
            0 -1 131 -653003469 235469723 319899927 1851644943 991752503
            -1114922471 1934909751 1331690421</internalNodes>
          <leafValues>
            -3.6330050230026245e-01 2.4831649661064148e-01</leafValues></_>
        <_>
          <internalNodes>
            0 -1 169 -746619018 557688621 150138876 729136637 -269623691
            2010939188 -406931755 -24447033</internalNodes>
          <leafValues>
            -2.7765679359436035e-01 3.2670262455940247e-01</leafValues></_>
        <_>
          <internalNodes>
            0 -1 86 -397827839 -28291067 1142964725 -800632655
            -267722357 547888106 -1069526317 -154680713</internalNodes>
          <leafValues>
            -3.1830573081970215e-01 3.0195391178131104e-01</leafValues></_>
        <_>
          <internalNodes>
            0 -1 290 -447805321 -1932410345 353798239 -1622215429
            -78715040 -385187645 -752622000 1583018176</internalNodes>
          <leafValues>
            -3.5136115550994873e-01 3.0083203315734863e-01</leafValues></_>
        <_>
          <internalNodes>
            0 -1 117 2145372752 1108451784 -1308061648 -253308414
            1154373658 176963584 -1695886338 -1899017908</internalNodes>
          <leafValues>
            -4.3699774146080017e-01 2.0348516106605530e-01</leafValues></_>
        <_>
          <internalNodes>
            0 -1 93 -1159747344 -2054527417 1883516982 2035016530
            -2145738104 -1607843263 290464340 2133840483</internalNodes>
          <leafValues>
            -4.1874024271965027e-01 2.3314076662063599e-01</leafValues></_>
        <_>
          <internalNodes>
            0 -1 29 -622087438 841898247 -1610613209 963641227
            1148538814 -209715307 1828287963 2078192972</internalNodes>
          <leafValues>
            -2.9961559176445007e-01 3.3168181777000427e-01</leafValues></_>
        <_>
          <internalNodes>
            0 -1 275 -680397290 88398611 1792207 202421335 1548914874
            -2027077243 1124967346 134759551</internalNodes>
          <leafValues>
            -5.4038566350936890e-01 1.7296373844146729e-01</leafValues></_>
        <_>
          <internalNodes>
            0 -1 64 -118237443 -1452108521 1426854160 -1877800168
            -938589684 -1476293011 404095622 -1201697128</internalNodes>
          <leafValues>
            -3.3314365148544312e-01 3.1921017169952393e-01</leafValues></_>
        <_>
          <internalNodes>
            0 -1 33 -1999696481 552747028 85492181 210243724 -2004522840
            -1667751736 1240009460 1843121578</internalNodes>
          <leafValues>
            -3.4822010993957520e-01 3.1402766704559326e-01</leafValues></_>
        <_>
          <internalNodes>
            0 -1 5 1604312897 -477076885 1208017116 1380041215
            1878139653 25586224 -150910766 333396794</internalNodes>
          <leafValues>
            -4.7523447871208191e-01 2.1510757505893707e-01</leafValues></_>
        <_>
          <internalNodes>
            0 -1 239 1377944386 806531266 -934125113 831619593 849481420
            717815960 1627951071 994667992</internalNodes>
          <leafValues>
            -4.4569218158721924e-01 2.2020870447158813e-01</leafValues></_>
        <_>
          <internalNodes>
            0 -1 150 -700529729 -1208781838 -4262157 501247988 499905485
            -822648937 -535314177 -276077129</internalNodes>
          <leafValues>
            -2.2437326610088348e-01 4.8596024513244629e-01</leafValues></_>
        <_>
          <internalNodes>
            0 -1 277 -2103409664 176702578 -1256517223 681448998
            2009788885 -1021243840 -1690337116 187103480</internalNodes>
          <leafValues>
            -5.8774471282958984e-01 1.8078906834125519e-01</leafValues></_>
        <_>
          <internalNodes>
            0 -1 179 -2071958088 1461295132 -1337867947 -676915257
            -1304123487 -796727158 158505979 529142424</internalNodes>
          <leafValues>
            -4.5356610417366028e-01 2.4745453894138336e-01</leafValues></_>
        <_>
          <internalNodes>
            0 -1 144 -752180805 108882474 -1060634542 744269766
            1141168528 85728908 -490583488 -9474185</internalNodes>
          <leafValues>
            -4.0550038218498230e-01 2.8162178397178650e-01</leafValues></_></weakClassifiers></_>
    <!-- stage 19 -->
    <_>
      <maxWeakCount>18</maxWeakCount>
      <stageThreshold>-1.4586578607559204e+00</stageThreshold>
      <weakClassifiers>
        <_>
          <internalNodes>
            0 -1 227 -1189990025 -1930598625 -452921901 -1374808161
            -787910539 -73717469 -1014998224 775555131</internalNodes>
          <leafValues>
            -4.7122603654861450e-01 2.0171366631984711e-01</leafValues></_>
        <_>
          <internalNodes>
            0 -1 49 -367021449 -867394310 201938943 1154749638
            1253906743 -99903320 -27427201 1856958636</internalNodes>
          <leafValues>
            -3.6501151323318481e-01 2.5344964861869812e-01</leafValues></_>
        <_>
          <internalNodes>
            0 -1 254 1036473050 -1487977305 -1877387174 520304272
            -2068102958 -2003129704 1116700822 783285423</internalNodes>
          <leafValues>
            -3.7428805232048035e-01 2.4343708157539368e-01</leafValues></_>
        <_>
          <internalNodes>
            0 -1 66 -705605232 -171961339 139266059 1630090627
            -905929044 -710629375 -1795024741 1149855370</internalNodes>
          <leafValues>
            -4.7594946622848511e-01 2.1604490280151367e-01</leafValues></_>
        <_>
          <internalNodes>
            0 -1 272 12323156 236195897 536909427 236218137 -644275914
            -1355118720 -1744589116 733887392</internalNodes>
          <leafValues>
            -5.6889301538467407e-01 1.7496678233146667e-01</leafValues></_>
        <_>
          <internalNodes>
            0 -1 283 610234133 -1973806995 100995583 278860281
            -414645647 -85339765 -1452611040 -151027716</internalNodes>
          <leafValues>
            -3.6120966076850891e-01 2.5281211733818054e-01</leafValues></_>
        <_>
          <internalNodes>
            0 -1 263 -112205000 1505827536 1627623699 353399966
            1069987464 -7262192 -297264390 408416090</internalNodes>
          <leafValues>
            -4.0209615230560303e-01 2.4993757903575897e-01</leafValues></_>
        <_>
          <internalNodes>
            0 -1 138 -1901984741 -1643118561 160469973 1385826616
            -64928322 -1681573756 -116870698 -1969086432</internalNodes>
          <leafValues>
            -3.4054353833198547e-01 3.1343132257461548e-01</leafValues></_>
        <_>
          <internalNodes>
            0 -1 170 -1769472157 1062311124 -931032699 341282643
            1758576225 478255300 1604828418 1537199193</internalNodes>
          <leafValues>
            -3.5073280334472656e-01 3.2330667972564697e-01</leafValues></_>
        <_>
          <internalNodes>
            0 -1 7 -94515650 -171932079 1579041114 415336720 -2133995372
            -419686814 1344135379 -652836852</internalNodes>
          <leafValues>
            -3.4140059351921082e-01 3.3066126704216003e-01</leafValues></_>
        <_>
          <internalNodes>
            0 -1 41 -44900642 1828897338 -2128526065 -1257596778
            1084268708 2034893152 1750045230 946865304</internalNodes>
          <leafValues>
            -5.0508034229278564e-01 2.3755599558353424e-01</leafValues></_>
        <_>
          <internalNodes>
            0 -1 186 -2007364780 -1966423733 -1458990755 -1634565222
            1598951756 -318109053 -1743763203 515546256</internalNodes>
          <leafValues>
            -6.3379597663879395e-01 1.6845820844173431e-01</leafValues></_>
        <_>
          <internalNodes>
            0 -1 123 -598950017 -861609582 1228977219 -2129705674
            -1178449712 -2105030268 -82296027 -842038372</internalNodes>
          <leafValues>
            -3.5419654846191406e-01 3.3828440308570862e-01</leafValues></_>
        <_>
          <internalNodes>
            0 -1 9 1948674730 1476677774 1346454170 -1367138166
            1955676250 -1068875774 1174421750 1795683687</internalNodes>
          <leafValues>
            -4.4306123256683350e-01 2.6022762060165405e-01</leafValues></_>
        <_>
          <internalNodes>
            0 -1 271 -1484461674 -855010556 -1526640201 -1723248616
            -1473726503 -1439751679 -1802591260 246362392</internalNodes>
          <leafValues>
            -3.8958010077476501e-01 2.9669311642646790e-01</leafValues></_>
        <_>
          <internalNodes>
            0 -1 34 68914386 -1905490751 -1002842923 176333350
            1484900834 -1161223452 1258782621 676250276</internalNodes>
          <leafValues>
            -4.8082429170608521e-01 2.2705580294132233e-01</leafValues></_>
        <_>
          <internalNodes>
            0 -1 214 1936929334 -1818623587 84072536 -1012465648
            -481688925 1350676641 1509949892 -558036566</internalNodes>
          <leafValues>
            -3.7316811084747314e-01 3.2483312487602234e-01</leafValues></_>
        <_>
          <internalNodes>
            0 -1 182 1350074560 -39288041 939613259 145519436 -213802824
            -149286815 -499113731 640434976</internalNodes>
          <leafValues>
            -5.6236559152603149e-01 2.0510220527648926e-01</leafValues></_></weakClassifiers></_></stages>
  <features>
    <_>
      <rect>
        0 0 5 10</rect></_>
    <_>
      <rect>
        0 0 6 10</rect></_>
    <_>
      <rect>
        0 1 3 9</rect></_>
    <_>
      <rect>
        0 1 9 13</rect></_>
    <_>
      <rect>
        0 3 6 12</rect></_>
    <_>
      <rect>
        0 4 12 12</rect></_>
    <_>
      <rect>
        0 6 4 3</rect></_>
    <_>
      <rect>
        0 6 13 9</rect></_>
    <_>
      <rect>
        0 9 3 3</rect></_>
    <_>
      <rect>
        0 9 3 8</rect></_>
    <_>
      <rect>
        0 12 2 3</rect></_>
    <_>
      <rect>
        0 12 2 4</rect></_>
    <_>
      <rect>
        0 12 11 6</rect></_>
    <_>
      <rect>
        0 13 2 3</rect></_>
    <_>
      <rect>
        0 13 7 7</rect></_>
    <_>
      <rect>
        0 15 2 4</rect></_>
    <_>
      <rect>
        0 16 2 3</rect></_>
    <_>
      <rect>
        0 16 11 4</rect></_>
    <_>
      <rect>
        0 22 7 6</rect></_>
    <_>
      <rect>
        1 0 7 13</rect></_>
    <_>
      <rect>
        1 0 13 4</rect></_>
    <_>
      <rect>
        1 2 11 6</rect></_>
    <_>
      <rect>
        1 7 6 11</rect></_>
    <_>
      <rect>
        1 10 4 10</rect></_>
    <_>
      <rect>
        2 1 5 13</rect></_>
    <_>
      <rect>
        2 5 5 8</rect></_>
    <_>
      <rect>
        2 9 6 6</rect></_>
    <_>
      <rect>
        2 19 4 4</rect></_>
    <_>
      <rect>
        2 25 3 2</rect></_>
    <_>
      <rect>
        2 28 12 4</rect></_>
    <_>
      <rect>
        3 8 3 8</rect></_>
    <_>
      <rect>
        3 14 9 5</rect></_>
    <_>
      <rect>
        3 16 5 4</rect></_>
    <_>
      <rect>
        3 17 2 1</rect></_>
    <_>
      <rect>
        3 20 1 1</rect></_>
    <_>
      <rect>
        3 28 12 4</rect></_>
    <_>
      <rect>
        4 2 10 7</rect></_>
    <_>
      <rect>
        4 7 8 8</rect></_>
    <_>
      <rect>
        4 10 9 8</rect></_>
    <_>
      <rect>
        4 19 12 7</rect></_>
    <_>
      <rect>
        4 21 1 1</rect></_>
    <_>
      <rect>
        5 0 6 7</rect></_>
    <_>
      <rect>
        5 0 8 7</rect></_>
    <_>
      <rect>
        5 2 5 9</rect></_>
    <_>
      <rect>
        5 6 7 8</rect></_>
    <_>
      <rect>
        5 13 4 3</rect></_>
    <_>
      <rect>
        5 15 4 3</rect></_>
    <_>
      <rect>
        5 20 9 3</rect></_>
    <_>
      <rect>
        5 20 10 4</rect></_>
    <_>
      <rect>
        5 21 1 1</rect></_>
    <_>
      <rect>
        5 21 2 2</rect></_>
    <_>
      <rect>
        5 30 5 3</rect></_>
    <_>
      <rect>
        6 3 5 9</rect></_>
    <_>
      <rect>
        6 7 5 4</rect></_>
    <_>
      <rect>
        6 9 11 9</rect></_>
    <_>
      <rect>
        6 10 11 10</rect></_>
    <_>
      <rect>
        6 13 5 9</rect></_>
    <_>
      <rect>
        6 18 1 3</rect></_>
    <_>
      <rect>
        6 18 7 5</rect></_>
    <_>
      <rect>
        6 20 7 5</rect></_>
    <_>
      <rect>
        7 0 3 3</rect></_>
    <_>
      <rect>
        7 0 6 8</rect></_>
    <_>
      <rect>
        7 0 11 7</rect></_>
    <_>
      <rect>
        7 1 6 7</rect></_>
    <_>
      <rect>
        7 1 7 6</rect></_>
    <_>
      <rect>
        7 4 11 12</rect></_>
    <_>
      <rect>
        7 6 5 7</rect></_>
    <_>
      <rect>
        7 8 10 8</rect></_>
    <_>
      <rect>
        8 0 2 3</rect></_>
    <_>
      <rect>
        8 0 8 7</rect></_>
    <_>
      <rect>
        8 1 5 5</rect></_>
    <_>
      <rect>
        8 9 3 4</rect></_>
    <_>
      <rect>
        8 9 9 8</rect></_>
    <_>
      <rect>
        8 9 10 7</rect></_>
    <_>
      <rect>
        8 11 9 8</rect></_>
    <_>
      <rect>
        8 18 3 3</rect></_>
    <_>
      <rect>
        8 18 3 4</rect></_>
    <_>
      <rect>
        8 20 3 3</rect></_>
    <_>
      <rect>
        9 0 6 8</rect></_>
    <_>
      <rect>
        9 0 7 7</rect></_>
    <_>
      <rect>
        9 0 8 8</rect></_>
    <_>
      <rect>
        9 4 4 8</rect></_>
    <_>
      <rect>
        9 6 6 3</rect></_>
    <_>
      <rect>
        9 6 6 6</rect></_>
    <_>
      <rect>
        9 9 5 3</rect></_>
    <_>
      <rect>
        9 10 3 6</rect></_>
    <_>
      <rect>
        9 12 8 2</rect></_>
    <_>
      <rect>
        9 13 4 3</rect></_>
    <_>
      <rect>
        9 13 4 4</rect></_>
    <_>
      <rect>
        9 15 4 5</rect></_>
    <_>
      <rect>
        9 16 1 2</rect></_>
    <_>
      <rect>
        9 17 1 1</rect></_>
    <_>
      <rect>
        9 17 5 6</rect></_>
    <_>
      <rect>
        9 18 3 5</rect></_>
    <_>
      <rect>
        9 18 4 2</rect></_>
    <_>
      <rect>
        9 18 7 5</rect></_>
    <_>
      <rect>
        10 2 5 6</rect></_>
    <_>
      <rect>
        10 5 8 5</rect></_>
    <_>
      <rect>
        10 9 4 5</rect></_>
    <_>
      <rect>
        10 9 9 8</rect></_>
    <_>
      <rect>
        10 10 3 7</rect></_>
    <_>
      <rect>
        10 10 8 8</rect></_>
    <_>
      <rect>
        10 10 8 9</rect></_>
    <_>
      <rect>
        10 11 1 1</rect></_>
    <_>
      <rect>
        10 12 4 7</rect></_>
    <_>
      <rect>
        10 13 4 7</rect></_>
    <_>
      <rect>
        10 14 3 8</rect></_>
    <_>
      <rect>
        10 16 1 3</rect></_>
    <_>
      <rect>
        10 16 5 8</rect></_>
    <_>
      <rect>
        10 17 1 1</rect></_>
    <_>
      <rect>
        11 0 7 8</rect></_>
    <_>
      <rect>
        11 0 8 7</rect></_>
    <_>
      <rect>
        11 5 4 4</rect></_>
    <_>
      <rect>
        11 6 5 4</rect></_>
    <_>
      <rect>
        11 7 6 3</rect></_>
    <_>
      <rect>
        11 7 6 10</rect></_>
    <_>
      <rect>
        11 8 5 5</rect></_>
    <_>
      <rect>
        11 10 5 6</rect></_>
    <_>
      <rect>
        11 14 3 4</rect></_>
    <_>
      <rect>
        11 14 3 6</rect></_>
    <_>
      <rect>
        11 16 1 4</rect></_>
    <_>
      <rect>
        11 16 3 3</rect></_>
    <_>
      <rect>
        11 17 4 7</rect></_>
    <_>
      <rect>
        11 22 5 5</rect></_>
    <_>
      <rect>
        12 0 5 3</rect></_>
    <_>
      <rect>
        12 1 7 6</rect></_>
    <_>
      <rect>
        12 7 5 8</rect></_>
    <_>
      <rect>
        12 9 6 3</rect></_>
    <_>
      <rect>
        12 10 3 6</rect></_>
    <_>
      <rect>
        12 14 3 6</rect></_>
    <_>
      <rect>
        12 15 1 1</rect></_>
    <_>
      <rect>
        12 16 1 1</rect></_>
    <_>
      <rect>
        12 16 4 7</rect></_>
    <_>
      <rect>
        12 16 6 8</rect></_>
    <_>
      <rect>
        12 17 1 1</rect></_>
    <_>
      <rect>
        12 18 4 7</rect></_>
    <_>
      <rect>
        12 20 2 1</rect></_>
    <_>
      <rect>
        12 20 2 2</rect></_>
    <_>
      <rect>
        13 0 2 2</rect></_>
    <_>
      <rect>
        13 0 9 9</rect></_>
    <_>
      <rect>
        13 5 5 10</rect></_>
    <_>
      <rect>
        13 7 4 8</rect></_>
    <_>
      <rect>
        13 10 5 9</rect></_>
    <_>
      <rect>
        13 17 1 1</rect></_>
    <_>
      <rect>
        13 17 3 6</rect></_>
    <_>
      <rect>
        13 19 4 7</rect></_>
    <_>
      <rect>
        13 20 2 1</rect></_>
    <_>
      <rect>
        13 20 2 2</rect></_>
    <_>
      <rect>
        13 24 2 3</rect></_>
    <_>
      <rect>
        14 3 4 10</rect></_>
    <_>
      <rect>
        14 3 5 5</rect></_>
    <_>
      <rect>
        14 6 6 7</rect></_>
    <_>
      <rect>
        14 12 4 5</rect></_>
    <_>
      <rect>
        14 14 1 1</rect></_>
    <_>
      <rect>
        14 17 4 7</rect></_>
    <_>
      <rect>
        14 17 6 5</rect></_>
    <_>
      <rect>
        14 22 2 3</rect></_>
    <_>
      <rect>
        15 3 6 7</rect></_>
    <_>
      <rect>
        15 5 5 6</rect></_>
    <_>
      <rect>
        15 7 5 4</rect></_>
    <_>
      <rect>
        15 12 3 5</rect></_>
    <_>
      <rect>
        15 13 3 5</rect></_>
    <_>
      <rect>
        15 14 1 1</rect></_>
    <_>
      <rect>
        15 22 1 2</rect></_>
    <_>
      <rect>
        15 22 3 5</rect></_>
    <_>
      <rect>
        15 27 1 2</rect></_>
    <_>
      <rect>
        16 0 5 6</rect></_>
    <_>
      <rect>
        16 0 5 8</rect></_>
    <_>
      <rect>
        16 5 5 7</rect></_>
    <_>
      <rect>
        16 10 4 7</rect></_>
    <_>
      <rect>
        16 13 1 1</rect></_>
    <_>
      <rect>
        16 14 1 1</rect></_>
    <_>
      <rect>
        16 16 5 8</rect></_>
    <_>
      <rect>
        16 17 1 1</rect></_>
    <_>
      <rect>
        16 17 5 6</rect></_>
    <_>
      <rect>
        16 20 1 2</rect></_>
    <_>
      <rect>
        16 21 1 2</rect></_>
    <_>
      <rect>
        16 21 4 6</rect></_>
    <_>
      <rect>
        16 28 1 1</rect></_>
    <_>
      <rect>
        16 28 1 2</rect></_>
    <_>
      <rect>
        16 28 2 2</rect></_>
    <_>
      <rect>
        16 30 1 1</rect></_>
    <_>
      <rect>
        17 0 3 5</rect></_>
    <_>
      <rect>
        17 13 2 2</rect></_>
    <_>
      <rect>
        17 15 1 1</rect></_>
    <_>
      <rect>
        17 17 1 1</rect></_>
    <_>
      <rect>
        17 17 1 2</rect></_>
    <_>
      <rect>
        17 18 1 1</rect></_>
    <_>
      <rect>
        17 18 2 2</rect></_>
    <_>
      <rect>
        17 19 1 1</rect></_>
    <_>
      <rect>
        17 20 3 6</rect></_>
    <_>
      <rect>
        17 27 1 1</rect></_>
    <_>
      <rect>
        18 8 5 3</rect></_>
    <_>
      <rect>
        18 9 5 5</rect></_>
    <_>
      <rect>
        18 14 3 6</rect></_>
    <_>
      <rect>
        18 15 1 1</rect></_>
    <_>
      <rect>
        18 15 1 2</rect></_>
    <_>
      <rect>
        18 15 3 7</rect></_>
    <_>
      <rect>
        18 16 1 1</rect></_>
    <_>
      <rect>
        18 16 4 3</rect></_>
    <_>
      <rect>
        18 17 3 3</rect></_>
    <_>
      <rect>
        18 17 4 3</rect></_>
    <_>
      <rect>
        18 19 1 1</rect></_>
    <_>
      <rect>
        18 19 4 2</rect></_>
    <_>
      <rect>
        18 19 4 7</rect></_>
    <_>
      <rect>
        18 20 1 1</rect></_>
    <_>
      <rect>
        18 28 1 1</rect></_>
    <_>
      <rect>
        19 0 7 8</rect></_>
    <_>
      <rect>
        19 1 7 13</rect></_>
    <_>
      <rect>
        19 10 3 6</rect></_>
    <_>
      <rect>
        19 13 3 4</rect></_>
    <_>
      <rect>
        19 15 3 4</rect></_>
    <_>
      <rect>
        19 16 1 2</rect></_>
    <_>
      <rect>
        19 16 7 4</rect></_>
    <_>
      <rect>
        19 17 2 2</rect></_>
    <_>
      <rect>
        19 17 4 2</rect></_>
    <_>
      <rect>
        19 18 1 1</rect></_>
    <_>
      <rect>
        19 18 2 6</rect></_>
    <_>
      <rect>
        19 19 1 1</rect></_>
    <_>
      <rect>
        19 27 2 2</rect></_>
    <_>
      <rect>
        19 28 1 1</rect></_>
    <_>
      <rect>
        19 30 1 1</rect></_>
    <_>
      <rect>
        20 6 4 6</rect></_>
    <_>
      <rect>
        20 8 4 5</rect></_>
    <_>
      <rect>
        20 13 4 6</rect></_>
    <_>
      <rect>
        20 14 2 4</rect></_>
    <_>
      <rect>
        20 14 3 7</rect></_>
    <_>
      <rect>
        20 17 1 1</rect></_>
    <_>
      <rect>
        20 17 1 2</rect></_>
    <_>
      <rect>
        20 19 1 1</rect></_>
    <_>
      <rect>
        20 19 4 3</rect></_>
    <_>
      <rect>
        20 20 2 2</rect></_>
    <_>
      <rect>
        20 20 3 2</rect></_>
    <_>
      <rect>
        20 21 2 4</rect></_>
    <_>
      <rect>
        20 28 1 2</rect></_>
    <_>
      <rect>
        20 28 2 2</rect></_>
    <_>
      <rect>
        20 29 1 1</rect></_>
    <_>
      <rect>
        21 4 6 12</rect></_>
    <_>
      <rect>
        21 8 4 7</rect></_>
    <_>
      <rect>
        21 9 5 3</rect></_>
    <_>
      <rect>
        21 11 5 4</rect></_>
    <_>
      <rect>
        21 19 1 1</rect></_>
    <_>
      <rect>
        21 20 1 1</rect></_>
    <_>
      <rect>
        21 20 5 6</rect></_>
    <_>
      <rect>
        21 21 1 1</rect></_>
    <_>
      <rect>
        21 21 2 3</rect></_>
    <_>
      <rect>
        21 21 4 3</rect></_>
    <_>
      <rect>
        21 28 1 1</rect></_>
    <_>
      <rect>
        22 2 6 11</rect></_>
    <_>
      <rect>
        22 5 5 8</rect></_>
    <_>
      <rect>
        22 6 6 9</rect></_>
    <_>
      <rect>
        22 13 2 2</rect></_>
    <_>
      <rect>
        22 14 1 1</rect></_>
    <_>
      <rect>
        22 16 1 1</rect></_>
    <_>
      <rect>
        22 17 4 7</rect></_>
    <_>
      <rect>
        22 20 2 1</rect></_>
    <_>
      <rect>
        22 20 2 3</rect></_>
    <_>
      <rect>
        22 21 1 1</rect></_>
    <_>
      <rect>
        22 21 3 2</rect></_>
    <_>
      <rect>
        23 0 5 4</rect></_>
    <_>
      <rect>
        23 2 5 11</rect></_>
    <_>
      <rect>
        23 11 4 4</rect></_>
    <_>
      <rect>
        23 14 4 2</rect></_>
    <_>
      <rect>
        23 18 1 2</rect></_>
    <_>
      <rect>
        24 15 1 1</rect></_>
    <_>
      <rect>
        24 15 2 2</rect></_>
    <_>
      <rect>
        24 16 1 1</rect></_>
    <_>
      <rect>
        25 17 1 1</rect></_>
    <_>
      <rect>
        25 27 1 1</rect></_>
    <_>
      <rect>
        26 14 1 2</rect></_>
    <_>
      <rect>
        26 15 1 1</rect></_>
    <_>
      <rect>
        26 27 2 2</rect></_>
    <_>
      <rect>
        27 14 2 3</rect></_>
    <_>
      <rect>
        27 17 4 6</rect></_>
    <_>
      <rect>
        27 21 1 1</rect></_>
    <_>
      <rect>
        28 0 4 10</rect></_>
    <_>
      <rect>
        28 15 1 1</rect></_>
    <_>
      <rect>
        28 17 2 4</rect></_>
    <_>
      <rect>
        28 17 4 5</rect></_>
    <_>
      <rect>
        28 18 3 3</rect></_>
    <_>
      <rect>
        29 18 1 3</rect></_>
    <_>
      <rect>
        29 19 3 3</rect></_>
    <_>
      <rect>
        29 27 3 4</rect></_>
    <_>
      <rect>
        30 17 2 2</rect></_>
    <_>
      <rect>
        30 25 1 1</rect></_>
    <_>
      <rect>
        31 0 3 13</rect></_>
    <_>
      <rect>
        31 8 3 4</rect></_>
    <_>
      <rect>
        31 20 1 1</rect></_>
    <_>
      <rect>
        31 21 3 3</rect></_>
    <_>
      <rect>
        31 24 1 2</rect></_>
    <_>
      <rect>
        32 22 1 1</rect></_>
    <_>
      <rect>
        33 15 1 5</rect></_>
    <_>
      <rect>
        34 13 2 3</rect></_>
    <_>
      <rect>
        34 19 2 3</rect></_></features></cascade>
</opencv_storage>
